FANN_FLO_2.1
num_layers=3
learning_rate=0.700000
connection_rate=1.000000
network_type=0
learning_momentum=0.000000
training_algorithm=2
train_error_function=1
train_stop_function=0
cascade_output_change_fraction=0.010000
quickprop_decay=-0.000100
quickprop_mu=1.750000
rprop_increase_factor=1.200000
rprop_decrease_factor=0.500000
rprop_delta_min=0.000000
rprop_delta_max=50.000000
rprop_delta_zero=0.100000
cascade_output_stagnation_epochs=12
cascade_candidate_change_fraction=0.010000
cascade_candidate_stagnation_epochs=12
cascade_max_out_epochs=150
cascade_max_cand_epochs=150
cascade_num_candidate_groups=2
bit_fail_limit=3.49999999999999977796e-01
cascade_candidate_limit=1.00000000000000000000e+03
cascade_weight_multiplier=4.00000000000000022204e-01
cascade_activation_functions_count=10
cascade_activation_functions=3 5 7 8 10 11 14 15 16 17 
cascade_activation_steepnesses_count=4
cascade_activation_steepnesses=2.50000000000000000000e-01 5.00000000000000000000e-01 7.50000000000000000000e-01 1.00000000000000000000e+00 
layer_sizes=449 151 2 
scale_included=0
neurons (num_inputs, activation_function, activation_steepness)=(0, 0, 0.00000000000000000000e+00) (0, 0, 0.00000000000000000000e+00) (0, 0, 0.00000000000000000000e+00) (0, 0, 0.00000000000000000000e+00) (0, 0, 0.00000000000000000000e+00) (0, 0, 0.00000000000000000000e+00) (0, 0, 0.00000000000000000000e+00) (0, 0, 0.00000000000000000000e+00) (0, 0, 0.00000000000000000000e+00) (0, 0, 0.00000000000000000000e+00) (0, 0, 0.00000000000000000000e+00) (0, 0, 0.00000000000000000000e+00) (0, 0, 0.00000000000000000000e+00) (0, 0, 0.00000000000000000000e+00) (0, 0, 0.00000000000000000000e+00) (0, 0, 0.00000000000000000000e+00) (0, 0, 0.00000000000000000000e+00) (0, 0, 0.00000000000000000000e+00) (0, 0, 0.00000000000000000000e+00) (0, 0, 0.00000000000000000000e+00) (0, 0, 0.00000000000000000000e+00) (0, 0, 0.00000000000000000000e+00) (0, 0, 0.00000000000000000000e+00) (0, 0, 0.00000000000000000000e+00) (0, 0, 0.00000000000000000000e+00) (0, 0, 0.00000000000000000000e+00) (0, 0, 0.00000000000000000000e+00) (0, 0, 0.00000000000000000000e+00) (0, 0, 0.00000000000000000000e+00) (0, 0, 0.00000000000000000000e+00) (0, 0, 0.00000000000000000000e+00) (0, 0, 0.00000000000000000000e+00) (0, 0, 0.00000000000000000000e+00) (0, 0, 0.00000000000000000000e+00) (0, 0, 0.00000000000000000000e+00) (0, 0, 0.00000000000000000000e+00) (0, 0, 0.00000000000000000000e+00) (0, 0, 0.00000000000000000000e+00) (0, 0, 0.00000000000000000000e+00) (0, 0, 0.00000000000000000000e+00) (0, 0, 0.00000000000000000000e+00) (0, 0, 0.00000000000000000000e+00) (0, 0, 0.00000000000000000000e+00) (0, 0, 0.00000000000000000000e+00) (0, 0, 0.00000000000000000000e+00) (0, 0, 0.00000000000000000000e+00) (0, 0, 0.00000000000000000000e+00) (0, 0, 0.00000000000000000000e+00) (0, 0, 0.00000000000000000000e+00) (0, 0, 0.00000000000000000000e+00) (0, 0, 0.00000000000000000000e+00) (0, 0, 0.00000000000000000000e+00) (0, 0, 0.00000000000000000000e+00) (0, 0, 0.00000000000000000000e+00) (0, 0, 0.00000000000000000000e+00) (0, 0, 0.00000000000000000000e+00) (0, 0, 0.00000000000000000000e+00) (0, 0, 0.00000000000000000000e+00) (0, 0, 0.00000000000000000000e+00) (0, 0, 0.00000000000000000000e+00) (0, 0, 0.00000000000000000000e+00) (0, 0, 0.00000000000000000000e+00) (0, 0, 0.00000000000000000000e+00) (0, 0, 0.00000000000000000000e+00) (0, 0, 0.00000000000000000000e+00) (0, 0, 0.00000000000000000000e+00) (0, 0, 0.00000000000000000000e+00) (0, 0, 0.00000000000000000000e+00) (0, 0, 0.00000000000000000000e+00) (0, 0, 0.00000000000000000000e+00) (0, 0, 0.00000000000000000000e+00) (0, 0, 0.00000000000000000000e+00) (0, 0, 0.00000000000000000000e+00) (0, 0, 0.00000000000000000000e+00) (0, 0, 0.00000000000000000000e+00) (0, 0, 0.00000000000000000000e+00) (0, 0, 0.00000000000000000000e+00) (0, 0, 0.00000000000000000000e+00) (0, 0, 0.00000000000000000000e+00) (0, 0, 0.00000000000000000000e+00) (0, 0, 0.00000000000000000000e+00) (0, 0, 0.00000000000000000000e+00) (0, 0, 0.00000000000000000000e+00) (0, 0, 0.00000000000000000000e+00) (0, 0, 0.00000000000000000000e+00) (0, 0, 0.00000000000000000000e+00) (0, 0, 0.00000000000000000000e+00) (0, 0, 0.00000000000000000000e+00) (0, 0, 0.00000000000000000000e+00) (0, 0, 0.00000000000000000000e+00) (0, 0, 0.00000000000000000000e+00) (0, 0, 0.00000000000000000000e+00) (0, 0, 0.00000000000000000000e+00) (0, 0, 0.00000000000000000000e+00) (0, 0, 0.00000000000000000000e+00) (0, 0, 0.00000000000000000000e+00) (0, 0, 0.00000000000000000000e+00) (0, 0, 0.00000000000000000000e+00) (0, 0, 0.00000000000000000000e+00) (0, 0, 0.00000000000000000000e+00) (0, 0, 0.00000000000000000000e+00) (0, 0, 0.00000000000000000000e+00) (0, 0, 0.00000000000000000000e+00) (0, 0, 0.00000000000000000000e+00) (0, 0, 0.00000000000000000000e+00) (0, 0, 0.00000000000000000000e+00) (0, 0, 0.00000000000000000000e+00) (0, 0, 0.00000000000000000000e+00) (0, 0, 0.00000000000000000000e+00) (0, 0, 0.00000000000000000000e+00) (0, 0, 0.00000000000000000000e+00) (0, 0, 0.00000000000000000000e+00) (0, 0, 0.00000000000000000000e+00) (0, 0, 0.00000000000000000000e+00) (0, 0, 0.00000000000000000000e+00) (0, 0, 0.00000000000000000000e+00) (0, 0, 0.00000000000000000000e+00) (0, 0, 0.00000000000000000000e+00) (0, 0, 0.00000000000000000000e+00) (0, 0, 0.00000000000000000000e+00) (0, 0, 0.00000000000000000000e+00) (0, 0, 0.00000000000000000000e+00) (0, 0, 0.00000000000000000000e+00) (0, 0, 0.00000000000000000000e+00) (0, 0, 0.00000000000000000000e+00) (0, 0, 0.00000000000000000000e+00) (0, 0, 0.00000000000000000000e+00) (0, 0, 0.00000000000000000000e+00) (0, 0, 0.00000000000000000000e+00) (0, 0, 0.00000000000000000000e+00) (0, 0, 0.00000000000000000000e+00) (0, 0, 0.00000000000000000000e+00) (0, 0, 0.00000000000000000000e+00) (0, 0, 0.00000000000000000000e+00) (0, 0, 0.00000000000000000000e+00) (0, 0, 0.00000000000000000000e+00) (0, 0, 0.00000000000000000000e+00) (0, 0, 0.00000000000000000000e+00) (0, 0, 0.00000000000000000000e+00) (0, 0, 0.00000000000000000000e+00) (0, 0, 0.00000000000000000000e+00) (0, 0, 0.00000000000000000000e+00) (0, 0, 0.00000000000000000000e+00) (0, 0, 0.00000000000000000000e+00) (0, 0, 0.00000000000000000000e+00) (0, 0, 0.00000000000000000000e+00) (0, 0, 0.00000000000000000000e+00) (0, 0, 0.00000000000000000000e+00) (0, 0, 0.00000000000000000000e+00) (0, 0, 0.00000000000000000000e+00) (0, 0, 0.00000000000000000000e+00) (0, 0, 0.00000000000000000000e+00) (0, 0, 0.00000000000000000000e+00) (0, 0, 0.00000000000000000000e+00) (0, 0, 0.00000000000000000000e+00) (0, 0, 0.00000000000000000000e+00) (0, 0, 0.00000000000000000000e+00) (0, 0, 0.00000000000000000000e+00) (0, 0, 0.00000000000000000000e+00) (0, 0, 0.00000000000000000000e+00) (0, 0, 0.00000000000000000000e+00) (0, 0, 0.00000000000000000000e+00) (0, 0, 0.00000000000000000000e+00) (0, 0, 0.00000000000000000000e+00) (0, 0, 0.00000000000000000000e+00) (0, 0, 0.00000000000000000000e+00) (0, 0, 0.00000000000000000000e+00) (0, 0, 0.00000000000000000000e+00) (0, 0, 0.00000000000000000000e+00) (0, 0, 0.00000000000000000000e+00) (0, 0, 0.00000000000000000000e+00) (0, 0, 0.00000000000000000000e+00) (0, 0, 0.00000000000000000000e+00) (0, 0, 0.00000000000000000000e+00) (0, 0, 0.00000000000000000000e+00) (0, 0, 0.00000000000000000000e+00) (0, 0, 0.00000000000000000000e+00) (0, 0, 0.00000000000000000000e+00) (0, 0, 0.00000000000000000000e+00) (0, 0, 0.00000000000000000000e+00) (0, 0, 0.00000000000000000000e+00) (0, 0, 0.00000000000000000000e+00) (0, 0, 0.00000000000000000000e+00) (0, 0, 0.00000000000000000000e+00) (0, 0, 0.00000000000000000000e+00) (0, 0, 0.00000000000000000000e+00) (0, 0, 0.00000000000000000000e+00) (0, 0, 0.00000000000000000000e+00) (0, 0, 0.00000000000000000000e+00) (0, 0, 0.00000000000000000000e+00) (0, 0, 0.00000000000000000000e+00) (0, 0, 0.00000000000000000000e+00) (0, 0, 0.00000000000000000000e+00) (0, 0, 0.00000000000000000000e+00) (0, 0, 0.00000000000000000000e+00) (0, 0, 0.00000000000000000000e+00) (0, 0, 0.00000000000000000000e+00) (0, 0, 0.00000000000000000000e+00) (0, 0, 0.00000000000000000000e+00) (0, 0, 0.00000000000000000000e+00) (0, 0, 0.00000000000000000000e+00) (0, 0, 0.00000000000000000000e+00) (0, 0, 0.00000000000000000000e+00) (0, 0, 0.00000000000000000000e+00) (0, 0, 0.00000000000000000000e+00) (0, 0, 0.00000000000000000000e+00) (0, 0, 0.00000000000000000000e+00) (0, 0, 0.00000000000000000000e+00) (0, 0, 0.00000000000000000000e+00) (0, 0, 0.00000000000000000000e+00) (0, 0, 0.00000000000000000000e+00) (0, 0, 0.00000000000000000000e+00) (0, 0, 0.00000000000000000000e+00) (0, 0, 0.00000000000000000000e+00) (0, 0, 0.00000000000000000000e+00) (0, 0, 0.00000000000000000000e+00) (0, 0, 0.00000000000000000000e+00) (0, 0, 0.00000000000000000000e+00) (0, 0, 0.00000000000000000000e+00) (0, 0, 0.00000000000000000000e+00) (0, 0, 0.00000000000000000000e+00) (0, 0, 0.00000000000000000000e+00) (0, 0, 0.00000000000000000000e+00) (0, 0, 0.00000000000000000000e+00) (0, 0, 0.00000000000000000000e+00) (0, 0, 0.00000000000000000000e+00) (0, 0, 0.00000000000000000000e+00) (0, 0, 0.00000000000000000000e+00) (0, 0, 0.00000000000000000000e+00) (0, 0, 0.00000000000000000000e+00) (0, 0, 0.00000000000000000000e+00) (0, 0, 0.00000000000000000000e+00) (0, 0, 0.00000000000000000000e+00) (0, 0, 0.00000000000000000000e+00) (0, 0, 0.00000000000000000000e+00) (0, 0, 0.00000000000000000000e+00) (0, 0, 0.00000000000000000000e+00) (0, 0, 0.00000000000000000000e+00) (0, 0, 0.00000000000000000000e+00) (0, 0, 0.00000000000000000000e+00) (0, 0, 0.00000000000000000000e+00) (0, 0, 0.00000000000000000000e+00) (0, 0, 0.00000000000000000000e+00) (0, 0, 0.00000000000000000000e+00) (0, 0, 0.00000000000000000000e+00) (0, 0, 0.00000000000000000000e+00) (0, 0, 0.00000000000000000000e+00) (0, 0, 0.00000000000000000000e+00) (0, 0, 0.00000000000000000000e+00) (0, 0, 0.00000000000000000000e+00) (0, 0, 0.00000000000000000000e+00) (0, 0, 0.00000000000000000000e+00) (0, 0, 0.00000000000000000000e+00) (0, 0, 0.00000000000000000000e+00) (0, 0, 0.00000000000000000000e+00) (0, 0, 0.00000000000000000000e+00) (0, 0, 0.00000000000000000000e+00) (0, 0, 0.00000000000000000000e+00) (0, 0, 0.00000000000000000000e+00) (0, 0, 0.00000000000000000000e+00) (0, 0, 0.00000000000000000000e+00) (0, 0, 0.00000000000000000000e+00) (0, 0, 0.00000000000000000000e+00) (0, 0, 0.00000000000000000000e+00) (0, 0, 0.00000000000000000000e+00) (0, 0, 0.00000000000000000000e+00) (0, 0, 0.00000000000000000000e+00) (0, 0, 0.00000000000000000000e+00) (0, 0, 0.00000000000000000000e+00) (0, 0, 0.00000000000000000000e+00) (0, 0, 0.00000000000000000000e+00) (0, 0, 0.00000000000000000000e+00) (0, 0, 0.00000000000000000000e+00) (0, 0, 0.00000000000000000000e+00) (0, 0, 0.00000000000000000000e+00) (0, 0, 0.00000000000000000000e+00) (0, 0, 0.00000000000000000000e+00) (0, 0, 0.00000000000000000000e+00) (0, 0, 0.00000000000000000000e+00) (0, 0, 0.00000000000000000000e+00) (0, 0, 0.00000000000000000000e+00) (0, 0, 0.00000000000000000000e+00) (0, 0, 0.00000000000000000000e+00) (0, 0, 0.00000000000000000000e+00) (0, 0, 0.00000000000000000000e+00) (0, 0, 0.00000000000000000000e+00) (0, 0, 0.00000000000000000000e+00) (0, 0, 0.00000000000000000000e+00) (0, 0, 0.00000000000000000000e+00) (0, 0, 0.00000000000000000000e+00) (0, 0, 0.00000000000000000000e+00) (0, 0, 0.00000000000000000000e+00) (0, 0, 0.00000000000000000000e+00) (0, 0, 0.00000000000000000000e+00) (0, 0, 0.00000000000000000000e+00) (0, 0, 0.00000000000000000000e+00) (0, 0, 0.00000000000000000000e+00) (0, 0, 0.00000000000000000000e+00) (0, 0, 0.00000000000000000000e+00) (0, 0, 0.00000000000000000000e+00) (0, 0, 0.00000000000000000000e+00) (0, 0, 0.00000000000000000000e+00) (0, 0, 0.00000000000000000000e+00) (0, 0, 0.00000000000000000000e+00) (0, 0, 0.00000000000000000000e+00) (0, 0, 0.00000000000000000000e+00) (0, 0, 0.00000000000000000000e+00) (0, 0, 0.00000000000000000000e+00) (0, 0, 0.00000000000000000000e+00) (0, 0, 0.00000000000000000000e+00) (0, 0, 0.00000000000000000000e+00) (0, 0, 0.00000000000000000000e+00) (0, 0, 0.00000000000000000000e+00) (0, 0, 0.00000000000000000000e+00) (0, 0, 0.00000000000000000000e+00) (0, 0, 0.00000000000000000000e+00) (0, 0, 0.00000000000000000000e+00) (0, 0, 0.00000000000000000000e+00) (0, 0, 0.00000000000000000000e+00) (0, 0, 0.00000000000000000000e+00) (0, 0, 0.00000000000000000000e+00) (0, 0, 0.00000000000000000000e+00) (0, 0, 0.00000000000000000000e+00) (0, 0, 0.00000000000000000000e+00) (0, 0, 0.00000000000000000000e+00) (0, 0, 0.00000000000000000000e+00) (0, 0, 0.00000000000000000000e+00) (0, 0, 0.00000000000000000000e+00) (0, 0, 0.00000000000000000000e+00) (0, 0, 0.00000000000000000000e+00) (0, 0, 0.00000000000000000000e+00) (0, 0, 0.00000000000000000000e+00) (0, 0, 0.00000000000000000000e+00) (0, 0, 0.00000000000000000000e+00) (0, 0, 0.00000000000000000000e+00) (0, 0, 0.00000000000000000000e+00) (0, 0, 0.00000000000000000000e+00) (0, 0, 0.00000000000000000000e+00) (0, 0, 0.00000000000000000000e+00) (0, 0, 0.00000000000000000000e+00) (0, 0, 0.00000000000000000000e+00) (0, 0, 0.00000000000000000000e+00) (0, 0, 0.00000000000000000000e+00) (0, 0, 0.00000000000000000000e+00) (0, 0, 0.00000000000000000000e+00) (0, 0, 0.00000000000000000000e+00) (0, 0, 0.00000000000000000000e+00) (0, 0, 0.00000000000000000000e+00) (0, 0, 0.00000000000000000000e+00) (0, 0, 0.00000000000000000000e+00) (0, 0, 0.00000000000000000000e+00) (0, 0, 0.00000000000000000000e+00) (0, 0, 0.00000000000000000000e+00) (0, 0, 0.00000000000000000000e+00) (0, 0, 0.00000000000000000000e+00) (0, 0, 0.00000000000000000000e+00) (0, 0, 0.00000000000000000000e+00) (0, 0, 0.00000000000000000000e+00) (0, 0, 0.00000000000000000000e+00) (0, 0, 0.00000000000000000000e+00) (0, 0, 0.00000000000000000000e+00) (0, 0, 0.00000000000000000000e+00) (0, 0, 0.00000000000000000000e+00) (0, 0, 0.00000000000000000000e+00) (0, 0, 0.00000000000000000000e+00) (0, 0, 0.00000000000000000000e+00) (0, 0, 0.00000000000000000000e+00) (0, 0, 0.00000000000000000000e+00) (0, 0, 0.00000000000000000000e+00) (0, 0, 0.00000000000000000000e+00) (0, 0, 0.00000000000000000000e+00) (0, 0, 0.00000000000000000000e+00) (0, 0, 0.00000000000000000000e+00) (0, 0, 0.00000000000000000000e+00) (0, 0, 0.00000000000000000000e+00) (0, 0, 0.00000000000000000000e+00) (0, 0, 0.00000000000000000000e+00) (0, 0, 0.00000000000000000000e+00) (0, 0, 0.00000000000000000000e+00) (0, 0, 0.00000000000000000000e+00) (0, 0, 0.00000000000000000000e+00) (0, 0, 0.00000000000000000000e+00) (0, 0, 0.00000000000000000000e+00) (0, 0, 0.00000000000000000000e+00) (0, 0, 0.00000000000000000000e+00) (0, 0, 0.00000000000000000000e+00) (0, 0, 0.00000000000000000000e+00) (0, 0, 0.00000000000000000000e+00) (0, 0, 0.00000000000000000000e+00) (0, 0, 0.00000000000000000000e+00) (0, 0, 0.00000000000000000000e+00) (0, 0, 0.00000000000000000000e+00) (0, 0, 0.00000000000000000000e+00) (0, 0, 0.00000000000000000000e+00) (0, 0, 0.00000000000000000000e+00) (0, 0, 0.00000000000000000000e+00) (0, 0, 0.00000000000000000000e+00) (0, 0, 0.00000000000000000000e+00) (0, 0, 0.00000000000000000000e+00) (0, 0, 0.00000000000000000000e+00) (0, 0, 0.00000000000000000000e+00) (0, 0, 0.00000000000000000000e+00) (0, 0, 0.00000000000000000000e+00) (0, 0, 0.00000000000000000000e+00) (0, 0, 0.00000000000000000000e+00) (0, 0, 0.00000000000000000000e+00) (0, 0, 0.00000000000000000000e+00) (0, 0, 0.00000000000000000000e+00) (0, 0, 0.00000000000000000000e+00) (0, 0, 0.00000000000000000000e+00) (0, 0, 0.00000000000000000000e+00) (0, 0, 0.00000000000000000000e+00) (0, 0, 0.00000000000000000000e+00) (0, 0, 0.00000000000000000000e+00) (0, 0, 0.00000000000000000000e+00) (0, 0, 0.00000000000000000000e+00) (0, 0, 0.00000000000000000000e+00) (0, 0, 0.00000000000000000000e+00) (0, 0, 0.00000000000000000000e+00) (0, 0, 0.00000000000000000000e+00) (0, 0, 0.00000000000000000000e+00) (0, 0, 0.00000000000000000000e+00) (0, 0, 0.00000000000000000000e+00) (0, 0, 0.00000000000000000000e+00) (0, 0, 0.00000000000000000000e+00) (0, 0, 0.00000000000000000000e+00) (0, 0, 0.00000000000000000000e+00) (0, 0, 0.00000000000000000000e+00) (0, 0, 0.00000000000000000000e+00) (0, 0, 0.00000000000000000000e+00) (0, 0, 0.00000000000000000000e+00) (0, 0, 0.00000000000000000000e+00) (0, 0, 0.00000000000000000000e+00) (0, 0, 0.00000000000000000000e+00) (0, 0, 0.00000000000000000000e+00) (0, 0, 0.00000000000000000000e+00) (0, 0, 0.00000000000000000000e+00) (0, 0, 0.00000000000000000000e+00) (0, 0, 0.00000000000000000000e+00) (0, 0, 0.00000000000000000000e+00) (0, 0, 0.00000000000000000000e+00) (0, 0, 0.00000000000000000000e+00) (0, 0, 0.00000000000000000000e+00) (0, 0, 0.00000000000000000000e+00) (0, 0, 0.00000000000000000000e+00) (0, 0, 0.00000000000000000000e+00) (0, 0, 0.00000000000000000000e+00) (0, 0, 0.00000000000000000000e+00) (0, 0, 0.00000000000000000000e+00) (449, 6, 5.00000000000000000000e-01) (449, 6, 5.00000000000000000000e-01) (449, 6, 5.00000000000000000000e-01) (449, 6, 5.00000000000000000000e-01) (449, 6, 5.00000000000000000000e-01) (449, 6, 5.00000000000000000000e-01) (449, 6, 5.00000000000000000000e-01) (449, 6, 5.00000000000000000000e-01) (449, 6, 5.00000000000000000000e-01) (449, 6, 5.00000000000000000000e-01) (449, 6, 5.00000000000000000000e-01) (449, 6, 5.00000000000000000000e-01) (449, 6, 5.00000000000000000000e-01) (449, 6, 5.00000000000000000000e-01) (449, 6, 5.00000000000000000000e-01) (449, 6, 5.00000000000000000000e-01) (449, 6, 5.00000000000000000000e-01) (449, 6, 5.00000000000000000000e-01) (449, 6, 5.00000000000000000000e-01) (449, 6, 5.00000000000000000000e-01) (449, 6, 5.00000000000000000000e-01) (449, 6, 5.00000000000000000000e-01) (449, 6, 5.00000000000000000000e-01) (449, 6, 5.00000000000000000000e-01) (449, 6, 5.00000000000000000000e-01) (449, 6, 5.00000000000000000000e-01) (449, 6, 5.00000000000000000000e-01) (449, 6, 5.00000000000000000000e-01) (449, 6, 5.00000000000000000000e-01) (449, 6, 5.00000000000000000000e-01) (449, 6, 5.00000000000000000000e-01) (449, 6, 5.00000000000000000000e-01) (449, 6, 5.00000000000000000000e-01) (449, 6, 5.00000000000000000000e-01) (449, 6, 5.00000000000000000000e-01) (449, 6, 5.00000000000000000000e-01) (449, 6, 5.00000000000000000000e-01) (449, 6, 5.00000000000000000000e-01) (449, 6, 5.00000000000000000000e-01) (449, 6, 5.00000000000000000000e-01) (449, 6, 5.00000000000000000000e-01) (449, 6, 5.00000000000000000000e-01) (449, 6, 5.00000000000000000000e-01) (449, 6, 5.00000000000000000000e-01) (449, 6, 5.00000000000000000000e-01) (449, 6, 5.00000000000000000000e-01) (449, 6, 5.00000000000000000000e-01) (449, 6, 5.00000000000000000000e-01) (449, 6, 5.00000000000000000000e-01) (449, 6, 5.00000000000000000000e-01) (449, 6, 5.00000000000000000000e-01) (449, 6, 5.00000000000000000000e-01) (449, 6, 5.00000000000000000000e-01) (449, 6, 5.00000000000000000000e-01) (449, 6, 5.00000000000000000000e-01) (449, 6, 5.00000000000000000000e-01) (449, 6, 5.00000000000000000000e-01) (449, 6, 5.00000000000000000000e-01) (449, 6, 5.00000000000000000000e-01) (449, 6, 5.00000000000000000000e-01) (449, 6, 5.00000000000000000000e-01) (449, 6, 5.00000000000000000000e-01) (449, 6, 5.00000000000000000000e-01) (449, 6, 5.00000000000000000000e-01) (449, 6, 5.00000000000000000000e-01) (449, 6, 5.00000000000000000000e-01) (449, 6, 5.00000000000000000000e-01) (449, 6, 5.00000000000000000000e-01) (449, 6, 5.00000000000000000000e-01) (449, 6, 5.00000000000000000000e-01) (449, 6, 5.00000000000000000000e-01) (449, 6, 5.00000000000000000000e-01) (449, 6, 5.00000000000000000000e-01) (449, 6, 5.00000000000000000000e-01) (449, 6, 5.00000000000000000000e-01) (449, 6, 5.00000000000000000000e-01) (449, 6, 5.00000000000000000000e-01) (449, 6, 5.00000000000000000000e-01) (449, 6, 5.00000000000000000000e-01) (449, 6, 5.00000000000000000000e-01) (449, 6, 5.00000000000000000000e-01) (449, 6, 5.00000000000000000000e-01) (449, 6, 5.00000000000000000000e-01) (449, 6, 5.00000000000000000000e-01) (449, 6, 5.00000000000000000000e-01) (449, 6, 5.00000000000000000000e-01) (449, 6, 5.00000000000000000000e-01) (449, 6, 5.00000000000000000000e-01) (449, 6, 5.00000000000000000000e-01) (449, 6, 5.00000000000000000000e-01) (449, 6, 5.00000000000000000000e-01) (449, 6, 5.00000000000000000000e-01) (449, 6, 5.00000000000000000000e-01) (449, 6, 5.00000000000000000000e-01) (449, 6, 5.00000000000000000000e-01) (449, 6, 5.00000000000000000000e-01) (449, 6, 5.00000000000000000000e-01) (449, 6, 5.00000000000000000000e-01) (449, 6, 5.00000000000000000000e-01) (449, 6, 5.00000000000000000000e-01) (449, 6, 5.00000000000000000000e-01) (449, 6, 5.00000000000000000000e-01) (449, 6, 5.00000000000000000000e-01) (449, 6, 5.00000000000000000000e-01) (449, 6, 5.00000000000000000000e-01) (449, 6, 5.00000000000000000000e-01) (449, 6, 5.00000000000000000000e-01) (449, 6, 5.00000000000000000000e-01) (449, 6, 5.00000000000000000000e-01) (449, 6, 5.00000000000000000000e-01) (449, 6, 5.00000000000000000000e-01) (449, 6, 5.00000000000000000000e-01) (449, 6, 5.00000000000000000000e-01) (449, 6, 5.00000000000000000000e-01) (449, 6, 5.00000000000000000000e-01) (449, 6, 5.00000000000000000000e-01) (449, 6, 5.00000000000000000000e-01) (449, 6, 5.00000000000000000000e-01) (449, 6, 5.00000000000000000000e-01) (449, 6, 5.00000000000000000000e-01) (449, 6, 5.00000000000000000000e-01) (449, 6, 5.00000000000000000000e-01) (449, 6, 5.00000000000000000000e-01) (449, 6, 5.00000000000000000000e-01) (449, 6, 5.00000000000000000000e-01) (449, 6, 5.00000000000000000000e-01) (449, 6, 5.00000000000000000000e-01) (449, 6, 5.00000000000000000000e-01) (449, 6, 5.00000000000000000000e-01) (449, 6, 5.00000000000000000000e-01) (449, 6, 5.00000000000000000000e-01) (449, 6, 5.00000000000000000000e-01) (449, 6, 5.00000000000000000000e-01) (449, 6, 5.00000000000000000000e-01) (449, 6, 5.00000000000000000000e-01) (449, 6, 5.00000000000000000000e-01) (449, 6, 5.00000000000000000000e-01) (449, 6, 5.00000000000000000000e-01) (449, 6, 5.00000000000000000000e-01) (449, 6, 5.00000000000000000000e-01) (449, 6, 5.00000000000000000000e-01) (449, 6, 5.00000000000000000000e-01) (449, 6, 5.00000000000000000000e-01) (449, 6, 5.00000000000000000000e-01) (449, 6, 5.00000000000000000000e-01) (449, 6, 5.00000000000000000000e-01) (449, 6, 5.00000000000000000000e-01) (449, 6, 5.00000000000000000000e-01) (449, 6, 5.00000000000000000000e-01) (449, 6, 5.00000000000000000000e-01) (0, 6, 0.00000000000000000000e+00) (151, 6, 5.00000000000000000000e-01) (0, 6, 0.00000000000000000000e+00) 
connections (connected_to_neuron, weight)=(0, 4.00857132789997738787e-01) (1, 3.33213376120326087992e-01) (2, 3.98857694977449939167e-01) (3, 3.69227903933884105125e-01) (4, 4.42123264334903287587e-01) (5, 4.24477997467041789914e-01) (6, 4.81772767001284796251e-01) (7, 4.68998230377949631986e-01) (8, 3.92678444830857176218e-01) (9, 4.55475468118648973981e-01) (10, 3.67415943864732585933e-01) (11, 3.13050584490084604639e-01) (12, 4.06589167247778882075e-01) (13, 4.74135636999225895671e-01) (14, 2.99004741133622853333e-01) (15, 2.46253165341665164467e-01) (16, -6.26013870878349004689e-02) (17, -4.13277688771280526936e+00) (18, 2.86846441953407693681e-01) (19, 4.71433473011910131323e-01) (20, 4.27388129204384958904e-01) (21, 4.79752597463912910936e-01) (22, 4.63095954279043264812e-01) (23, 3.22500056818256053415e-01) (24, 3.96471289162089957081e-01) (25, 3.98896318205930744405e-01) (26, 4.69148104273417021481e-01) (27, 3.81292857096753368129e-01) (28, 2.89958275154499789394e-01) (29, 4.58643124520093758978e-01) (30, 3.90390482555572682077e-01) (31, 3.89320776671243928835e-01) (32, 2.85447503822733983370e-01) (33, 2.98404937947183646063e-01) (34, 3.00557612942363994168e-01) (35, 4.58173433205444013971e-01) (36, 4.15279304304954799409e-01) (37, 4.87811382675084836968e-01) (38, 4.53840403331588482239e-01) (39, 3.57525179041629670440e-01) (40, 4.77895384414715407306e-01) (41, 3.14104082539736262358e-01) (42, 3.24823850069369868265e-01) (43, 3.90288317160256914562e-01) (44, 2.94964419837921931755e-01) (45, 4.48043145510133355991e-01) (46, 4.06771648274674935131e-01) (47, 4.78257217242470833440e-01) (48, 3.74907379418484842937e-01) (49, 3.35264092611571862257e-01) (50, 4.40585313829586266987e-01) (51, 4.77576403412029282247e-01) (52, 3.15517121703652758669e-01) (53, 4.23568366998223810871e-01) (54, 3.20764414006261378010e-01) (55, 4.22192475838977621105e-01) (56, 3.08062647396254107868e-01) (57, 4.92683377872650318796e-01) (58, 3.02389607430207041361e-01) (59, 3.09480166714211635259e-01) (60, 4.34522952335764878207e-01) (61, 3.90787549683738966166e-01) (62, 4.41452419723181888056e-01) (63, 4.43334542562610289806e-01) (64, 3.84863203892711280840e-01) (65, 4.44325837215038321748e-01) (66, 4.45809678322962699148e-01) (67, 3.43060089562198189395e-01) (68, 4.42399813149234322207e-01) (69, 3.73474683800059936711e-01) (70, 3.62013864013996766733e-01) (71, 4.08744736819715293041e-01) (72, 3.92404903966851015262e-01) (73, 3.96138583619065065555e-01) (74, 3.05286192491581787056e-01) (75, 4.05052277211990996442e-01) (76, 3.76486527586569308390e-01) (77, 3.05416238698360875681e-01) (78, 3.80571276758197407641e-01) (79, 4.30596016695148131603e-01) (80, 3.25513489701673763843e-01) (81, 3.43716461368725079151e-01) (82, 4.29934838673431074518e-01) (83, 3.73112359472114352155e-01) (84, 4.86839803050466424228e-01) (85, 4.71734943403598339096e-01) (86, 2.77612397033356883558e-01) (87, 2.82788946778926630898e-01) (88, 4.49433171581185397780e-01) (89, 3.01960264636465414156e-01) (90, 3.15042298083847482904e-01) (91, 4.18326153751274187886e-01) (92, 4.13413985800765548806e-01) (93, 4.77387792599223648171e-01) (94, 3.87031690232421454745e-01) (95, 3.21025193858481994180e-01) (96, 4.28803644112139670241e-01) (97, 3.27510913387554225551e-01) (98, 3.66910497910403810007e-01) (99, 3.73102369970702729685e-01) (100, 4.08003389839050545351e-01) (101, 4.40360715906402133690e-01) (102, 4.71062675122139229433e-01) (103, 3.17822758917096714892e-01) (104, 3.33645802338964125866e-01) (105, 2.88025642469054821149e-01) (106, 4.36407643094188335553e-01) (107, 4.13082195910618066303e-01) (108, 2.99983635548469795840e-01) (109, 3.56143643345711136128e-01) (110, 3.85727657907990961750e-01) (111, 3.66462103062657862385e-01) (112, 3.96643415474411120680e-01) (113, 3.31620643812882087698e-01) (114, 4.16648532021041961837e-01) (115, 3.61060320717590033102e-01) (116, 2.88278240245730843494e-01) (117, 4.48913370818282364549e-01) (118, 4.24758639942352467234e-01) (119, 4.64294162505793139850e-01) (120, 4.66264883685962916449e-01) (121, 4.56896070463180037358e-01) (122, 3.78106647731357770059e-01) (123, 3.58980175044113336558e-01) (124, 4.37054722018241359471e-01) (125, 4.87545703723370194016e-01) (126, 3.86892579499599709170e-01) (127, 3.54099271515247615572e-01) (128, 3.06312162586376446338e-01) (129, 4.48639975489669995401e-01) (130, 4.26343043962356837984e-01) (131, 4.39760155446080602815e-01) (132, 3.92552644362098357433e-01) (133, 4.00298515555263856314e-01) (134, 4.94362340045916170972e-01) (135, 4.48113235054687142345e-01) (136, 4.42739009774810565734e-01) (137, 4.53319920558123701237e-01) (138, 4.01635394175516580173e-01) (139, 4.67726262807955261991e-01) (140, 2.90733101001408811292e-01) (141, 4.61343288802620044020e-01) (142, 2.85864169671079859647e-01) (143, 4.27333419144796888833e-01) (144, 3.31053413443958055584e-01) (145, 4.84008797424773096196e-01) (146, 3.58148910989012581041e-01) (147, 3.39166837019213573967e-01) (148, 4.36945823908814146019e-01) (149, 4.84351148589176772052e-01) (150, 3.02480783255324292558e-01) (151, 3.88820212276205945390e-01) (152, 4.49166604472807817761e-01) (153, 4.22276673788078982241e-01) (154, 4.89347828305763843382e-01) (155, 3.93342209733528735960e-01) (156, 4.09870876115236038029e-01) (157, 3.97134033716721179808e-01) (158, 4.70303530551533011117e-01) (159, 4.44557050921062735238e-01) (160, 3.85608396470926595434e-01) (161, 4.25515462848416514685e-01) (162, 3.78349033753025532079e-01) (163, 4.79003082264096435861e-01) (164, 3.47996350902789020054e-01) (165, 3.94239237042518009257e-01) (166, 4.50683303491957343301e-01) (167, 2.95107442918781215369e-01) (168, 2.47067622475454606867e-01) (169, 3.42800512890797548504e-01) (170, 4.36591176551257398319e-01) (171, 3.46120970577392716994e-01) (172, 3.49757603824723872776e-01) (173, 2.93751116783843080338e-01) (174, 3.13701107042127835811e-01) (175, 3.79821962809276880702e-01) (176, 4.92935737355274794513e-01) (177, 3.64376632257027266437e-01) (178, 4.12971287435645095787e-01) (179, 4.24196715601446450172e-01) (180, 3.54721087638984577950e-01) (181, 4.36136636921883591445e-01) (182, 3.13539202592957033655e-01) (183, 4.85485161591249769764e-01) (184, 3.54858418997992419719e-01) (185, 4.45805502759242966437e-01) (186, 6.83467168696813232032e-01) (187, 5.18644619223702085797e-01) (188, 5.17243630771746509822e-01) (189, 6.54687882142439336874e-01) (190, 4.08390862029665957511e-01) (191, 4.89546203006172020444e-01) (192, 4.69275504257380016160e-01) (193, 2.97512168679085420298e-01) (194, 4.62098417270986439043e-01) (195, 2.80953493490982642022e-01) (196, 3.88283242781418735934e-01) (197, 3.89456524817426485985e-01) (198, 2.35744158031460010472e-01) (199, 4.22616450742103633154e-01) (200, 4.68888563207483122230e-01) (201, 4.94405939753278067528e-01) (202, 3.17101388209847956379e-01) (203, 3.33567977159199613446e-01) (204, 3.05273001346711758686e-01) (205, 3.03703598688480680412e-01) (206, 4.01129595095606639177e-01) (207, 2.83713820510089032023e-01) (208, 3.76955912257772640661e-01) (209, 3.09183723716141833915e-01) (210, 4.23641520863842324651e-01) (211, 4.25542801895627320619e-01) (212, 4.60316901900134967107e-01) (213, 4.64042486562240841241e-01) (214, 4.22649446011553242553e-01) (215, 3.15837258075665816559e-01) (216, 4.81129785873256721196e-01) (217, 3.19699605800472186345e-01) (218, 4.86502578355632819829e-01) (219, 3.99555845059715197820e-01) (220, 3.66654622058239620941e-01) (221, 3.85798608466254022709e-01) (222, 3.58311081143170673258e-01) (223, 2.69248059674788930984e-01) (224, 3.96799337983774702554e-01) (225, 3.50205358982729475503e-01) (226, 3.36382455496270937889e-01) (227, 2.24824383779522074533e-01) (228, 3.96500000536098906601e-01) (229, 3.00190098093360835385e-01) (230, -7.01542328325516911791e-02) (231, 2.89843240813172808856e-01) (232, 2.47710066960885405551e-01) (233, 2.91498972456393445896e-01) (234, 2.52881872803084428725e+00) (235, 1.56677507103201119065e+01) (236, 5.65558461605329121369e+00) (237, 1.17112782107670732046e+00) (238, 5.59954878368563446767e-02) (239, -9.49494328200091095016e-03) (240, -5.72964532681269900216e-01) (241, 1.16671122621855594126e+00) (242, 1.85149042536233476852e+00) (243, 9.00357865960928482885e-01) (244, 3.69489031446018301175e-01) (245, 4.22636323937532309980e-01) (246, 3.05836182745510498648e-01) (247, 3.51929601765018806869e-01) (248, -6.13616865249645981883e-01) (249, -6.41917585995906841978e-03) (250, -1.06198445484561324048e-01) (251, 3.17416039469057720268e-01) (252, 2.36529856844898411783e-01) (253, 3.86533097421974558561e-01) (254, 2.50985766412305633111e-01) (255, 3.47939684911724111949e-01) (256, 1.42382466225106196767e-01) (257, 2.88815075727458570043e-01) (258, 3.02051705999857367235e-01) (259, 7.03927546607236442888e-01) (260, 1.09685790353591117174e+00) (261, 6.14387845927127140833e-01) (262, 5.60557064288134565544e+00) (263, 2.67462850588923117812e+00) (264, 1.18362777774719640789e+00) (265, 4.42413811510423382600e+00) (266, 8.04353531760031992270e-01) (267, 2.19983375070681580477e-02) (268, 1.37363220984219741583e-01) (269, 7.72523888493261701171e+00) (270, 1.68908189662937786579e+01) (271, 4.02940209831610562929e+00) (272, -2.08267472413595999825e+00) (273, 7.62524104589814344379e-01) (274, 7.46585266031563055122e-01) (275, 5.61569951179952231435e-01) (276, 3.12940590845954047516e-01) (277, 3.97008416298493538310e-01) (278, 1.21971170724036431787e-01) (279, 3.08378992794406059375e-01) (280, 3.48813873004122698696e-01) (281, 4.00954581220894556992e-01) (282, 3.83662109449456889543e-01) (283, 3.91951714177847743148e-01) (284, 3.74626248168899333990e-01) (285, 3.07666293195964557494e-01) (286, 3.37230393744067435957e-01) (287, 8.61734051824783575668e-01) (288, 5.73935403645805930495e+00) (289, 1.33319744609977997030e+00) (290, 1.43616319983753548684e+00) (291, 9.08652077804768532054e-01) (292, 1.38790362020406976562e+00) (293, 1.46409992675229405634e+00) (294, 8.29458575049859758721e-01) (295, 8.38004163665269530270e-01) (296, 1.53795762957061921128e+00) (297, 1.02536886029008869059e+01) (298, 1.32490844886011416293e+01) (299, 1.41432586187982001213e+00) (300, 3.56956204793753006932e-01) (301, 1.47902286440916452825e+00) (302, 9.00001161066685595458e-01) (303, 4.84706722567346759423e-01) (304, 3.34859360388268356701e-01) (305, 3.55186475976646098829e-01) (306, 2.85531626539050786828e-01) (307, 6.45853537659391574444e-01) (308, 2.27088655396775085382e-01) (309, 2.36204569087085147761e-01) (310, -1.53609808363693256528e-01) (311, -1.41345778814717187855e-01) (312, 1.62993453714298991430e-01) (313, -8.92060351116959887596e-02) (314, -2.53311598138372451317e-01) (315, 4.53441874274374878695e-01) (316, 3.14648975906082040144e-01) (317, 3.59313936506699904694e-01) (318, 3.95229359175828742767e-01) (319, 3.36893853463186732089e-01) (320, 4.78240297158126048682e-01) (321, 4.07087261704872971357e-01) (322, 4.75734826095878693408e-01) (323, 6.48598790865607344180e-01) (324, 7.53242219076330155048e-01) (325, 2.24789561619768152312e+00) (326, 9.97425835300138730055e-01) (327, 6.74139974087720861284e-01) (328, 9.05196367173580873633e-01) (329, 7.62329666747973311303e-01) (330, 4.83706555333358323434e-01) (331, 4.85919558954061969747e-01) (332, 4.41322542751278579232e-01) (333, 3.40231204375442131127e-01) (334, 2.60453282579471034897e-01) (335, 9.35518636780329100600e-03) (336, 4.13657616927549376395e-01) (337, 3.84023031720103436015e-01) (338, 2.62201110233296563745e-01) (339, 3.60596596465803331810e-01) (340, 2.10921472859544462120e-01) (341, 2.11622572159494287680e-01) (342, 1.51480093869614390600e-01) (343, -1.75153077170771914739e-01) (344, -3.89532418591359980153e-02) (345, 1.98299761581115951969e-01) (346, 4.65272215770351882380e-01) (347, 4.63550128140331252347e-01) (348, 2.99461930171065926487e-01) (349, -6.46053869333160002419e-01) (350, 2.88682878517043217670e-01) (351, 2.75731014727615131310e-01) (352, -3.46568313283730611296e-01) (353, -6.57957902230528413057e-01) (354, -2.15519436459940250117e+00) (355, -2.25188820974814118969e+00) (356, -7.46217027555417411477e-01) (357, -7.84775490784706653002e-01) (358, -7.64051096933357376528e-01) (359, -6.26605158943660089932e-01) (360, 3.92383355915232809319e-02) (361, 1.44125150852534134049e-01) (362, 2.81478033857166076714e-01) (363, 2.23581565830296355446e-02) (364, 3.15017403840675780380e-01) (365, 3.80846076709598968524e-01) (366, 2.15926391904191633531e-01) (367, 2.49808062863916463536e-01) (368, 4.00513976486028544510e-01) (369, 4.59159022668525984567e-01) (370, 4.84759188960320330786e-01) (371, 3.52733840386053987270e-01) (372, 3.53170322188012197895e-01) (373, 3.52234778979894025408e-01) (374, 3.86101953103322625971e-01) (375, 3.70336626131003654461e-01) (376, 4.34576442166129006672e-01) (377, -4.38253400426730083117e-02) (378, 1.85444934639504732665e-01) (379, 3.83291517204550458153e-01) (380, 4.68377164410990032284e-01) (381, 6.68846318811859075204e-01) (382, -2.45154475286414497148e+00) (383, -7.07100037979200513050e-01) (384, 1.77283395232848556278e-01) (385, 3.63925222027999317742e-01) (386, 4.12343277735687074870e-01) (387, 4.72608794476648386151e-01) (388, 6.22078487338950325558e-01) (389, 5.79770686240533850153e-01) (390, 3.26082218903557652379e-01) (391, 3.87832338828353329063e-01) (392, 2.42990201218798107519e-01) (393, 4.59696110274368463511e-01) (394, 3.34857016874074431279e-01) (395, 4.49778441688980734625e-01) (396, 4.51791947830114115625e-01) (397, 4.47505846623298897402e-01) (398, 4.68583121899482979433e-01) (399, 3.82205760571167230122e-01) (400, 4.27930502685711144917e-01) (401, 4.67993501035134040755e-01) (402, 4.84593342804822690972e-01) (403, 3.77872078071171735303e-01) (404, 3.30932504330647025981e-01) (405, 3.81390358110038740769e-01) (406, 4.50781725292881296774e-01) (407, 5.15182876749255891369e-01) (408, 1.46719504773963183020e+00) (409, 9.83186577074055434444e-01) (410, -3.12309589333441106618e-01) (411, -3.46870848413133259225e-01) (412, 3.46049831551552222741e-01) (413, 4.86699622115849883652e-01) (414, 3.84099882783987822688e-01) (415, 3.57379251091053840028e-01) (416, 3.87996207257175096395e-01) (417, 3.09457348262261733307e-01) (418, 4.30095435654115065827e-01) (419, 2.98919376364697453319e-01) (420, 4.72511202374919281333e-01) (421, 4.67822332092449444385e-01) (422, 3.83608867723412294559e-01) (423, 3.35692335269417441168e-01) (424, 4.74587242503208772693e-01) (425, 4.39615246256958636106e-01) (426, 4.63184505704757942812e-01) (427, 4.11227765885750495833e-01) (428, 3.93416430262486183089e-01) (429, 4.54123112765709602279e-01) (430, 3.14761559871594154281e-01) (431, 3.81686065073456148866e-01) (432, 4.80271486600365005160e-01) (433, 3.21592453544634448992e-01) (434, 4.37912298177225378648e-01) (435, 3.09373630084358142156e-01) (436, 4.69351658276921313018e+00) (437, 8.98478011366551698735e-01) (438, 3.07131262098740920319e-01) (439, 3.86315656943913288135e-01) (440, 3.78444411367340804997e-01) (441, 3.98044463779389512403e-01) (442, 3.47420864495137038386e-01) (443, 4.21843576510810502889e-01) (444, 3.88506302212666854157e-01) (445, 4.26847171533636993157e-01) (446, 4.72511471783112979583e-01) (447, 4.76799478628002204594e-01) (448, 4.60626924022329908848e-01) (0, 3.96244485793022793718e-01) (1, 4.67699239269492195170e-01) (2, 4.21880972498583362018e-01) (3, 3.78902110309959849754e-01) (4, 3.53279091678367129781e-01) (5, 4.65310248777390356167e-01) (6, 3.68511655920638170336e-01) (7, 3.25293912867821610746e-01) (8, 4.52136298267327207956e-01) (9, 2.73434456367950995404e-01) (10, 4.40964625898748241450e-01) (11, 4.32841250295424306849e-01) (12, 3.23341781328684796382e-01) (13, 2.85607315315819176860e-01) (14, 2.65168972433976912750e-01) (15, 2.12530466653158167656e-01) (16, -9.67515106840265010080e-02) (17, -4.13961497098001718342e+00) (18, 4.19142396925913263139e-01) (19, 3.31894942751585653173e-01) (20, 4.14597561031453287761e-01) (21, 3.50879808021373751359e-01) (22, 4.23929682592489309734e-01) (23, 3.13465691402682933298e-01) (24, 4.13701531652858389698e-01) (25, 3.46318673619367634053e-01) (26, 4.01923437797167326657e-01) (27, 3.39116666333041438808e-01) (28, 3.07879491940407423733e-01) (29, 3.82160016416818459906e-01) (30, 4.76154205213730030710e-01) (31, 4.02629331559015535280e-01) (32, 3.43450258868624680453e-01) (33, 4.07191945577054903449e-01) (34, 3.23540389107372428068e-01) (35, 4.27332023045379316706e-01) (36, 3.64898545363781245943e-01) (37, 3.97533032858285673150e-01) (38, 4.79294656289886211731e-01) (39, 3.66602277262216447173e-01) (40, 4.05576033278030989582e-01) (41, 4.13107032433210841216e-01) (42, 4.53691617820586645671e-01) (43, 4.34721575634129830945e-01) (44, 4.05439065929383002373e-01) (45, 3.43075126680310815708e-01) (46, 2.17482205079808255110e-01) (47, 3.54581744208088966985e-01) (48, 4.63101280301682627361e-01) (49, 4.78270618545314385450e-01) (50, 3.77371317240402459614e-01) (51, 3.52979725691482781880e-01) (52, 3.29650843293694872926e-01) (53, 3.21188091271905451496e-01) (54, 3.87133373850373774250e-01) (55, 4.53556425018626974133e-01) (56, 3.53104730063604876911e-01) (57, 4.91827678691093617136e-01) (58, 4.91577372551666891276e-01) (59, 3.72443451266308955816e-01) (60, 3.57184145050932877474e-01) (61, 4.65739027032543551066e-01) (62, 3.17724256182818576288e-01) (63, 4.23998497774249694103e-01) (64, 3.68601708242896675127e-01) (65, 3.43580453564973853364e-01) (66, 3.95632215923956809256e-01) (67, 4.76417823050281075137e-01) (68, 4.51376093838473824160e-01) (69, 3.48751474359351776311e-01) (70, 3.04448696467724488901e-01) (71, 3.45401655196399481884e-01) (72, 4.66684659320778627567e-01) (73, 4.67441176373429079227e-01) (74, 4.86376368597081165657e-01) (75, 3.89806675677147551617e-01) (76, 3.42821101511110781779e-01) (77, 2.97216979059574670785e-01) (78, 4.41650190268043141284e-01) (79, 2.85124488522655261669e-01) (80, 4.60320729919597881885e-01) (81, 3.41581363388225811573e-01) (82, 3.59866658112365400690e-01) (83, 3.22053336926299837994e-01) (84, 3.82324421893068200351e-01) (85, 4.68035730137225658432e-01) (86, 4.57917326647423850172e-01) (87, 4.23315651269111414834e-01) (88, 4.44878244232094766097e-01) (89, 4.71452956391760324983e-01) (90, 3.18532287871187647088e-01) (91, 3.36432426567932207906e-01) (92, 4.57858166825793777566e-01) (93, 3.57149630022071395974e-01) (94, 4.85801906339789923983e-01) (95, 3.49207868057824721841e-01) (96, 4.07820082238703696120e-01) (97, 3.76103652194755611049e-01) (98, 3.28450906342887483103e-01) (99, 3.61095092511796555979e-01) (100, 4.31872934106704964297e-01) (101, 3.44335956792613528954e-01) (102, 3.95712316039917244570e-01) (103, 4.15972047362807850757e-01) (104, 3.08923639704829833263e-01) (105, 3.93765466942912700787e-01) (106, 3.19311319574243190900e-01) (107, 3.54694603475734948628e-01) (108, 3.97524200383541359560e-01) (109, 3.00126229610321537677e-01) (110, 3.81868547731427698810e-01) (111, 3.98809908860711603840e-01) (112, 3.38490911209102740553e-01) (113, 4.57693356055485389700e-01) (114, 3.97937307822700592208e-01) (115, 3.98392438275115667867e-01) (116, 4.10651731771380867908e-01) (117, 4.10507065803195236864e-01) (118, 4.02617473910991841013e-01) (119, 3.82112731152700946247e-01) (120, 3.97351274896518946722e-01) (121, 4.38244883043288679936e-01) (122, 4.14031477273994641397e-01) (123, 3.34510743554407297129e-01) (124, 2.98165357120036667027e-01) (125, 4.22240753843723892746e-01) (126, 3.90605829659816994326e-01) (127, 3.94226347723839076753e-01) (128, 2.89599958964512127491e-01) (129, 4.13893641532951550577e-01) (130, 4.54462861338493617769e-01) (131, 4.46917496091870702912e-01) (132, 4.61781539370662352795e-01) (133, 3.53067966398598054312e-01) (134, 3.99668962431894758680e-01) (135, 2.92619960723594307872e-01) (136, 3.01248274661189918699e-01) (137, 4.41530241030840986394e-01) (138, 3.87754552741514657566e-01) (139, 4.23776092529406067655e-01) (140, 4.22925995817807431898e-01) (141, 4.43603337192054858473e-01) (142, 2.74261805190584406766e-01) (143, 3.01373814166235487466e-01) (144, 4.39386151724254381268e-01) (145, 4.53695216196516870610e-01) (146, 4.69521426548209053209e-01) (147, 3.69873075020798580681e-01) (148, 3.68225945116051389672e-01) (149, 3.73582480235619185382e-01) (150, 4.51005581708178449052e-01) (151, 4.51186735124812055009e-01) (152, 3.19746756149939470593e-01) (153, 4.06726298803337771304e-01) (154, 3.27244912959141376341e-01) (155, 3.25032999492687824095e-01) (156, 3.29015558701429122745e-01) (157, 4.38744378961128833616e-01) (158, 4.42121411420444754281e-01) (159, 3.46989533610681799569e-01) (160, 3.92472392857454610571e-01) (161, 4.25453153642884440711e-01) (162, 2.87938853363144509068e-01) (163, 3.55095978129536804513e-01) (164, 3.00703488815300956638e-01) (165, 4.09135689469428409648e-01) (166, 3.71282935457117713174e-01) (167, 3.06323852423194709083e-01) (168, 2.50174380473921209589e-01) (169, 4.49519298951607637616e-01) (170, 4.03857393425380017948e-01) (171, 2.81420620412025701551e-01) (172, 4.38736449450839671726e-01) (173, 4.49414987058863568681e-01) (174, 3.23041154878431435726e-01) (175, 3.77133547460747065028e-01) (176, 4.18286023421806929523e-01) (177, 4.85089188201946852619e-01) (178, 4.40989106363409988365e-01) (179, 4.80827133306028664528e-01) (180, 3.64664986406217472847e-01) (181, 4.12679236421109207900e-01) (182, 4.32536143146145357630e-01) (183, 3.66009208310323908009e-01) (184, 3.15850654688347720622e-01) (185, 6.02699530946041117652e-01) (186, 6.95682008155278808204e-01) (187, 3.98781541225540714368e-01) (188, 5.15748008673300617488e-01) (189, 6.38720595019236059287e-01) (190, 3.90960265976065646232e-01) (191, 4.94914584744834629149e-01) (192, 4.53245907928644664597e-01) (193, 3.89671387765255616831e-01) (194, 3.43559691149799117937e-01) (195, 4.17631041780281653253e-01) (196, 2.95338911314267094088e-01) (197, 3.91517429916341586082e-01) (198, 3.83638100924011238302e-01) (199, 3.32778869822837997106e-01) (200, 3.77668266288137155495e-01) (201, 4.09566126342042258202e-01) (202, 3.62563467556027918537e-01) (203, 3.31326514690098661298e-01) (204, 3.76097058210496437702e-01) (205, 3.58505725870964353508e-01) (206, 3.96199709827395274431e-01) (207, 4.79888173871218515210e-01) (208, 3.52470592404943661169e-01) (209, 3.32271642474534167899e-01) (210, 4.76446274048160978154e-01) (211, 4.11001384535321534486e-01) (212, 4.59947442509494708318e-01) (213, 4.35844169868934872003e-01) (214, 4.88632085801134652403e-01) (215, 4.76460041080903506927e-01) (216, 4.09825501837097094793e-01) (217, 3.97897085048519061345e-01) (218, 3.27262250580154345769e-01) (219, 3.26755938925109790105e-01) (220, 4.28884814183083218353e-01) (221, 4.09127687617407587162e-01) (222, 2.90879549296647388346e-01) (223, 3.15448659196187475295e-01) (224, 3.12287625790285627847e-01) (225, 3.64235100269960920816e-01) (226, 3.19260589150865359276e-01) (227, 2.47368343099113652261e-01) (228, 2.12590651392593643632e-01) (229, 2.30962186561435189880e-01) (230, -1.37447854432225763377e-01) (231, 2.14713590279973082220e-01) (232, 2.93642344997956716846e-01) (233, 2.69667430202899072178e-01) (234, 2.65144761055819566664e+00) (235, 1.55845070422407356858e+01) (236, 5.68855520470757092255e+00) (237, 1.08882681908090517275e+00) (238, -3.10738298616225483428e-02) (239, -1.00966330467931026359e-03) (240, -6.32177604742808596505e-01) (241, 1.13244665425381563217e+00) (242, 1.84543429170464090561e+00) (243, 8.40775323332878632421e-01) (244, 3.07026165139713591579e-01) (245, 2.82562830814477583541e-01) (246, 2.06876386614852691981e-01) (247, 2.18162440246682937106e-01) (248, -6.75492879124653389233e-01) (249, -6.46192818847014655015e-02) (250, -1.12765506431979550817e-01) (251, 3.17770210268313091362e-01) (252, 4.01658832951541922007e-01) (253, 3.12534497177452463834e-01) (254, 2.97540533007669361076e-01) (255, 2.28556960745807780100e-01) (256, 2.82413606522758042772e-01) (257, 1.18247980447764772238e-01) (258, 2.05212941153532918426e-01) (259, 8.60049344466905285600e-01) (260, 1.05706289970452438354e+00) (261, 6.50255469911940831018e-01) (262, 5.68656279765839478557e+00) (263, 2.48076576966410300429e+00) (264, 1.19766385947851583538e+00) (265, 4.42775914942840298494e+00) (266, 7.27247130435759614464e-01) (267, 6.90050116179575928621e-02) (268, 5.86832421367161904957e-02) (269, 7.76106316516480809753e+00) (270, 1.69463109129314091206e+01) (271, 4.09150903548613431582e+00) (272, -2.08111500841792906868e+00) (273, 8.11959913844460867693e-01) (274, 7.49109664298832189644e-01) (275, 7.00666796121330093250e-01) (276, 4.22302917408358458040e-01) (277, 3.00573029610976150128e-01) (278, 1.27300854147078756906e-01) (279, 3.55865290580641868701e-01) (280, 3.94178394447966540248e-01) (281, 3.99717211147099238389e-01) (282, 4.31502578034948014452e-01) (283, 4.02445216198683619613e-01) (284, 2.99390277850581920660e-01) (285, 4.02061535827399951781e-01) (286, 4.28341178304509295760e-01) (287, 9.26529218078826932725e-01) (288, 5.86318217188887214064e+00) (289, 1.52746945761825814181e+00) (290, 1.45708015352043496193e+00) (291, 7.92685213874543159740e-01) (292, 1.41804325272712961059e+00) (293, 1.36600904713317228278e+00) (294, 7.19628970424157632380e-01) (295, 8.82179870469068205807e-01) (296, 1.64348777235473741953e+00) (297, 1.02667526073817256815e+01) (298, 1.31402668590850169039e+01) (299, 1.44117604071759619622e+00) (300, 4.05844493232073388889e-01) (301, 1.42569718153067026556e+00) (302, 9.88958280799780986570e-01) (303, 5.35154722998407050838e-01) (304, 3.30969486764420395275e-01) (305, 4.46667997702300478835e-01) (306, 2.75076472656547332818e-01) (307, 7.51325990597948467631e-01) (308, 2.22134786709622222833e-01) (309, 2.31079091177043283167e-01) (310, -2.00651071795003910214e-01) (311, -1.00935126058026417017e-01) (312, 1.56630605730461863745e-01) (313, -8.84068262322251358087e-02) (314, -2.02407450811426414816e-01) (315, 3.71843048521639685244e-01) (316, 4.09843419966407662702e-01) (317, 3.01328854237985110931e-01) (318, 3.78425722028878974701e-01) (319, 3.55916441149963846957e-01) (320, 6.14527233858469523753e-01) (321, 4.11200585691403275312e-01) (322, 3.78790538676559762621e-01) (323, 6.15025357108779036075e-01) (324, 8.59264655248100472917e-01) (325, 2.24112174203405389861e+00) (326, 1.00802810834710943055e+00) (327, 6.85692557513957967608e-01) (328, 9.11486497490792024756e-01) (329, 6.64114302828238134424e-01) (330, 5.22109310146790295271e-01) (331, 3.41097974729361042012e-01) (332, 4.89781506383862141885e-01) (333, 4.67591082647260403160e-01) (334, 3.66079705491353435409e-01) (335, -1.46075726603692973571e-01) (336, 4.32499017670080199149e-01) (337, 2.79194294043959789775e-01) (338, 2.12242639024485590937e-01) (339, 3.74484121070600695091e-01) (340, 1.00967249822778437629e-01) (341, 1.14622822618211495094e-01) (342, 2.05778271231102732886e-01) (343, -9.14701377605623283662e-02) (344, -1.35153778795657403267e-01) (345, 3.03502101170712301759e-01) (346, 4.67356336878406997126e-01) (347, 4.62544046440006240140e-01) (348, 3.46679180041366330478e-01) (349, -6.60773385372054877784e-01) (350, 3.06699373327624424945e-01) (351, 4.59235193847678635493e-01) (352, -3.57174497885514363738e-01) (353, -7.36885687388685761690e-01) (354, -2.20526360731523851655e+00) (355, -2.15647196190344558886e+00) (356, -6.31918695072840597149e-01) (357, -6.24242472374500367849e-01) (358, -6.57082261937133482732e-01) (359, -7.06016687948233911953e-01) (360, -9.84440017223670582602e-02) (361, 2.89496736936900145309e-01) (362, 2.57244908706962482903e-01) (363, -6.68652319994386540314e-02) (364, 3.87748861491337248886e-01) (365, 2.62239378941626022357e-01) (366, 1.71272089605168958970e-01) (367, 3.41380917531818817157e-01) (368, 3.77078540296853892411e-01) (369, 3.64546245435402205270e-01) (370, 3.90219568978077635535e-01) (371, 4.19344199041506604519e-01) (372, 3.61557828196160391254e-01) (373, 3.11993336359139783465e-01) (374, 3.36395244463462472773e-01) (375, 4.82523587006991661053e-01) (376, 2.99537336154738376148e-01) (377, -9.14479163986072624004e-02) (378, 2.96625806364587241148e-01) (379, 2.95469653612879468163e-01) (380, 4.06035072016161235897e-01) (381, 7.98043681622232603523e-01) (382, -2.35586242988517069463e+00) (383, -7.80048322426394102891e-01) (384, 2.27552976610354812381e-01) (385, 4.09538279939395344353e-01) (386, 4.34811248583770570963e-01) (387, 4.37176712807079259626e-01) (388, 6.28224575581481148312e-01) (389, 5.09207474203447585381e-01) (390, 4.11238618660227650548e-01) (391, 4.56296081561355093559e-01) (392, 3.17798571540787055945e-01) (393, 3.20619385625892816538e-01) (394, 3.14097371024608107426e-01) (395, 3.97318270406689322272e-01) (396, 3.94108532119188059717e-01) (397, 3.82091902200100197451e-01) (398, 3.07695798579571022646e-01) (399, 3.01086901220485925190e-01) (400, 4.67903776559040307514e-01) (401, 4.12566575614372932357e-01) (402, 4.70084827208432920465e-01) (403, 4.26232865403229688184e-01) (404, 4.35264131818783317485e-01) (405, 3.17175145049659712448e-01) (406, 4.11329463070114531575e-01) (407, 4.84475383324840858101e-01) (408, 1.35535725832331843677e+00) (409, 8.54915183596138494870e-01) (410, -2.30838928468134141347e-01) (411, -3.21050742145204182076e-01) (412, 3.46975812059879706872e-01) (413, 4.63852595529317235368e-01) (414, 3.36971704604723754084e-01) (415, 4.08574809251597281801e-01) (416, 4.10762253483199724080e-01) (417, 4.84797136460732913665e-01) (418, 4.45858897243928242737e-01) (419, 3.27831495932091598888e-01) (420, 3.77287783006652333029e-01) (421, 3.68742194183990734668e-01) (422, 4.80984722573227441167e-01) (423, 3.15277289948429739752e-01) (424, 4.36430375475926057849e-01) (425, 3.16231456002365740598e-01) (426, 3.90309281650898232119e-01) (427, 3.15387468246380531234e-01) (428, 4.04618691114346229476e-01) (429, 4.20360598174492561263e-01) (430, 3.37802409587065421981e-01) (431, 4.32861614699806551698e-01) (432, 3.91082031687225661898e-01) (433, 3.30124791389006244646e-01) (434, 3.37448617254240301744e-01) (435, 3.24515802659355090398e-01) (436, 4.63783370382791471087e+00) (437, 9.58562078651612581304e-01) (438, 4.91565944229554629974e-01) (439, 4.18794995291825122852e-01) (440, 3.10257092625065566960e-01) (441, 4.63949803795277782026e-01) (442, 4.05720305385687651789e-01) (443, 3.54582230826282152059e-01) (444, 4.31564630543183669342e-01) (445, 4.38018437970213836419e-01) (446, 4.56445680533837661041e-01) (447, 3.42623842753730700750e-01) (448, 4.47137960775984388828e-01) (0, 3.95942171034722012468e-01) (1, 3.62435722962615058940e-01) (2, 3.13168604785131976520e-01) (3, 4.79519660623432597557e-01) (4, 3.45391430221305362203e-01) (5, 3.36182817116499721433e-01) (6, 4.30972324305667009448e-01) (7, 3.94022456685818589506e-01) (8, 4.50133671609841246042e-01) (9, 4.40054837544422594586e-01) (10, 3.20895442489534221675e-01) (11, 3.97076086694979513148e-01) (12, 3.13003005515105237055e-01) (13, 4.16713684513187687664e-01) (14, 3.40214341999463765198e-01) (15, 2.10724028683950431740e-01) (16, -6.61088224096428728194e-02) (17, -4.04942741393837213337e+00) (18, 3.61653068839537072954e-01) (19, 4.22621694585739782202e-01) (20, 4.89219812124840891521e-01) (21, 3.25869814557619097428e-01) (22, 4.46469104508497305339e-01) (23, 4.53993275061378154245e-01) (24, 4.46990971629073752247e-01) (25, 3.01596757301427986775e-01) (26, 3.85509331904985930173e-01) (27, 3.83577383921704540004e-01) (28, 4.47091787353424696683e-01) (29, 4.31570277630597909369e-01) (30, 3.07125975202266976449e-01) (31, 3.41539309233499788210e-01) (32, 2.87596996324946396761e-01) (33, 3.29451335931211397590e-01) (34, 3.63067894743587638029e-01) (35, 3.63591091594058668512e-01) (36, 3.58030518213150295015e-01) (37, 2.99521218800458788323e-01) (38, 4.84282283557723736145e-01) (39, 3.57731612278228638946e-01) (40, 4.74184592946095107013e-01) (41, 2.98025453940092666105e-01) (42, 4.09055792961444564249e-01) (43, 2.92991356508382372326e-01) (44, 4.21463841732472144219e-01) (45, 3.73484686287816614048e-01) (46, 2.73945550965085438122e-01) (47, 4.01249215736142250677e-01) (48, 3.83698401421181833904e-01) (49, 4.77244643794795586622e-01) (50, 3.14765533897087335102e-01) (51, 3.48199090453788995259e-01) (52, 3.03614878804711718630e-01) (53, 4.81121747725991755207e-01) (54, 3.22880319291142969806e-01) (55, 4.60809922857600973156e-01) (56, 4.68316447848009631549e-01) (57, 4.11160525690262013132e-01) (58, 3.43291577548491155802e-01) (59, 4.26867483835240535406e-01) (60, 3.25927249538590424471e-01) (61, 3.48424997547556181132e-01) (62, 3.11058251525073214960e-01) (63, 3.36888332267648360485e-01) (64, 3.73547068367007850664e-01) (65, 3.76441958268734000459e-01) (66, 4.44781125671557364676e-01) (67, 4.74495156023761299746e-01) (68, 3.86225773308536080020e-01) (69, 4.02888003924209259221e-01) (70, 2.93655368182507314767e-01) (71, 3.48859894334525855175e-01) (72, 4.05739595491356630497e-01) (73, 4.12012030679650087528e-01) (74, 3.48104392334750045723e-01) (75, 3.44886395101395293317e-01) (76, 3.17801515424837588419e-01) (77, 4.15408340486881688669e-01) (78, 4.43397381220344166675e-01) (79, 3.80702026536113402599e-01) (80, 3.77486135967895763965e-01) (81, 2.80722778447792420398e-01) (82, 4.50663545986968672175e-01) (83, 4.13182766564685610700e-01) (84, 4.81399493406721001865e-01) (85, 4.94579570903178722396e-01) (86, 3.56300236243390189284e-01) (87, 4.37602452488097870553e-01) (88, 3.90754931997216226058e-01) (89, 4.21550070239492757906e-01) (90, 3.87243103032654245599e-01) (91, 4.51052225526233752095e-01) (92, 4.90641242992900405984e-01) (93, 4.19194444251082931618e-01) (94, 3.13311533085967597323e-01) (95, 3.86936322975494018106e-01) (96, 3.02726401916533549574e-01) (97, 4.52762199119346675502e-01) (98, 3.64256697959327302438e-01) (99, 3.90851098365211091501e-01) (100, 3.62667992714760079043e-01) (101, 3.69348420123836063134e-01) (102, 4.28926557306167854922e-01) (103, 2.85822057042602273302e-01) (104, 2.78506949891692889842e-01) (105, 2.88707728221542003766e-01) (106, 3.44241055383807781354e-01) (107, 2.99258327576324700825e-01) (108, 4.10657837990638985293e-01) (109, 3.26803167548057937886e-01) (110, 4.22009809845475702961e-01) (111, 3.29108937614945917804e-01) (112, 3.04309256755825152663e-01) (113, 3.88631503063904426565e-01) (114, 4.19365773665901275802e-01) (115, 2.63285852355258642721e-01) (116, 3.68133719545752968738e-01) (117, 3.30318448692942856493e-01) (118, 4.81797677289192372019e-01) (119, 4.85471424573587995166e-01) (120, 4.67259774614231349066e-01) (121, 3.86135909778594466069e-01) (122, 4.32009951771789746378e-01) (123, 4.37202330615097223276e-01) (124, 3.08101198084353877782e-01) (125, 4.67728872969090103684e-01) (126, 3.31025864932653679507e-01) (127, 2.99068515816566737886e-01) (128, 4.11746610113308209034e-01) (129, 3.90119457246357159708e-01) (130, 3.89061024108764919038e-01) (131, 2.99859210319070257356e-01) (132, 4.63019825865871093029e-01) (133, 3.20880381610990861319e-01) (134, 3.22460689319120863416e-01) (135, 4.63441552935317635509e-01) (136, 3.64002957857734454894e-01) (137, 3.89251700002341383122e-01) (138, 3.03139866073595609652e-01) (139, 2.99664402902235615933e-01) (140, 3.97324407628205533705e-01) (141, 3.99129912638183703688e-01) (142, 2.80449154748460993680e-01) (143, 4.41590552151846449380e-01) (144, 3.25850889079963457196e-01) (145, 4.81311016696432947271e-01) (146, 4.74631600965704780748e-01) (147, 4.13819788229950802361e-01) (148, 3.15653121055134489037e-01) (149, 4.57872843130154250080e-01) (150, 3.98310985357985425370e-01) (151, 4.68522403331026959794e-01) (152, 3.51928142054490022961e-01) (153, 3.72010184401520449526e-01) (154, 4.47272179401917102659e-01) (155, 3.67150230086845996702e-01) (156, 3.39787552249107116520e-01) (157, 4.99191684402031543577e-01) (158, 3.89080802656749991097e-01) (159, 4.79908178307155874887e-01) (160, 4.29145521462343526586e-01) (161, 5.07010710629693051033e-01) (162, 4.73799204091179371190e-01) (163, 3.93007385779053863839e-01) (164, 3.50073457289212131016e-01) (165, 3.17787756653876651836e-01) (166, 3.80015939788706458291e-01) (167, 4.18448504093650641700e-01) (168, 3.06547920785973038171e-01) (169, 3.73637624065857820721e-01) (170, 3.91870362919245984745e-01) (171, 3.12192568809185166945e-01) (172, 3.18381327659476909275e-01) (173, 4.43615291209444928544e-01) (174, 4.94029848711782570980e-01) (175, 3.43243166005325617274e-01) (176, 4.40102150424046156818e-01) (177, 4.61188038571400282795e-01) (178, 4.51045453018301956138e-01) (179, 4.50070436247350991188e-01) (180, 4.25054195944915669259e-01) (181, 3.70040994176388748915e-01) (182, 4.19115114293682589075e-01) (183, 4.58579818654733906147e-01) (184, 4.38496293571461581706e-01) (185, 5.09305765556121947668e-01) (186, 6.30369831212453601843e-01) (187, 5.32199177381623034222e-01) (188, 4.82801541273703394008e-01) (189, 7.20367812292947995445e-01) (190, 4.57296525221938143790e-01) (191, 4.98641245950126377195e-01) (192, 4.16450686659513957810e-01) (193, 4.41867994758930737742e-01) (194, 3.85197763729898223772e-01) (195, 4.30205788985062287377e-01) (196, 4.56187603373784000826e-01) (197, 4.41888510553319735497e-01) (198, 3.08337504269596107687e-01) (199, 3.50001102939464736608e-01) (200, 3.52157664588784891091e-01) (201, 3.22278484280331900536e-01) (202, 4.10557634168653040607e-01) (203, 3.85460809080777067059e-01) (204, 4.83009745631341469441e-01) (205, 3.77488583336708372062e-01) (206, 4.16443630213232829362e-01) (207, 4.08616977863490216105e-01) (208, 3.47552300240141109899e-01) (209, 3.62571909515263690604e-01) (210, 3.74418373531174020208e-01) (211, 4.66472298183926992188e-01) (212, 4.47609459854923064093e-01) (213, 3.20395240499485256525e-01) (214, 4.36673584462175745635e-01) (215, 3.86767671977471694245e-01) (216, 4.00982795156799243230e-01) (217, 4.80626424648128547368e-01) (218, 3.70987517632804797429e-01) (219, 4.84966775276027717290e-01) (220, 3.93261368076172512787e-01) (221, 3.19189210935698297611e-01) (222, 4.52817054303437660501e-01) (223, 2.43029984369565160707e-01) (224, 4.74545781434225599771e-01) (225, 3.67810671151327650552e-01) (226, 4.59416657058675625969e-01) (227, 3.70475172921176931773e-01) (228, 2.66537299185648390853e-01) (229, 2.95817657814830714536e-01) (230, -1.97118790748477518138e-01) (231, 2.43149647549546293890e-01) (232, 2.71210181640222258714e-01) (233, 2.57990671675143057318e-01) (234, 2.53401795923821504530e+00) (235, 1.56689875663038460374e+01) (236, 5.69586129619497860688e+00) (237, 1.19164107995112367178e+00) (238, -1.78645018062407907877e-02) (239, 1.37813601792582799722e-03) (240, -6.99063076086803181219e-01) (241, 1.24362807732186175791e+00) (242, 1.90329299722527034433e+00) (243, 9.61551876039835273779e-01) (244, 3.02758636486568755153e-01) (245, 2.88463046172019621505e-01) (246, 2.37960581394248749110e-01) (247, 2.05052216089111144504e-01) (248, -7.86863330873024957590e-01) (249, 1.01901799473453017614e-02) (250, -1.67664893493575412053e-01) (251, 3.70776330294424694145e-01) (252, 3.86529833003040335093e-01) (253, 2.19572597241252942535e-01) (254, 2.78127970756578302147e-01) (255, 3.75686094089504263316e-01) (256, 1.93027284918505626088e-01) (257, 2.38991493555064632437e-01) (258, 2.75448916240221441942e-01) (259, 8.24609659479837220353e-01) (260, 1.04266188481027732848e+00) (261, 6.60820512407668370081e-01) (262, 5.67955916994089982097e+00) (263, 2.64393259066706320937e+00) (264, 1.19655214344648763714e+00) (265, 4.50332587337115963777e+00) (266, 7.74894487422759126183e-01) (267, 7.51993647215952604190e-02) (268, 3.70642314200394715207e-02) (269, 7.82191983158073789184e+00) (270, 1.69548930653576519489e+01) (271, 4.00300456460133435854e+00) (272, -2.10907691818889464486e+00) (273, 8.78400786692494772723e-01) (274, 7.81381731219827901924e-01) (275, 6.68437357697219680652e-01) (276, 2.94643984007250891999e-01) (277, 3.63929283860787544658e-01) (278, 2.81961205721500018928e-01) (279, 3.16835915861975681018e-01) (280, 3.32344103824301684291e-01) (281, 2.99478165229111414902e-01) (282, 4.45479315891812999162e-01) (283, 3.25481914450646281356e-01) (284, 3.06189334976627147711e-01) (285, 3.96625711433173877563e-01) (286, 2.98507003194646236555e-01) (287, 8.43941953600620520248e-01) (288, 5.77848987252287482619e+00) (289, 1.46787125014450348104e+00) (290, 1.33905321895632112295e+00) (291, 8.93591891418660133617e-01) (292, 1.36901008774910226684e+00) (293, 1.44097849528237675898e+00) (294, 7.83702473441583169489e-01) (295, 8.32034982008432066891e-01) (296, 1.59402393774117578928e+00) (297, 1.03784734673861489540e+01) (298, 1.30963163311785990572e+01) (299, 1.37009318793677725701e+00) (300, 3.78422009221615174290e-01) (301, 1.39032882095165644110e+00) (302, 1.02937096011439499499e+00) (303, 4.79770325491693683251e-01) (304, 3.62041984132279281994e-01) (305, 3.19352737232387107191e-01) (306, 1.87462644176303400156e-01) (307, 6.54739554564699344219e-01) (308, 3.58175787195042782951e-01) (309, 9.81256112909883182471e-02) (310, -1.36266868390815754086e-01) (311, -2.26728419176503104282e-01) (312, 1.23438071730780293822e-01) (313, -2.10045884226113893645e-01) (314, -2.05164038972418083517e-01) (315, 3.45449571648003439517e-01) (316, 4.82768533107944486371e-01) (317, 3.68738093947362288727e-01) (318, 4.69444972481397548858e-01) (319, 3.44149243749632349765e-01) (320, 4.22338270564440898536e-01) (321, 3.84192905305098419966e-01) (322, 4.67930015095054718799e-01) (323, 5.73803231816954695255e-01) (324, 7.07226416305477334490e-01) (325, 2.19433471103916177825e+00) (326, 1.11666111247604238343e+00) (327, 6.84190486938005437700e-01) (328, 9.76420326500324953223e-01) (329, 7.28796779050753462670e-01) (330, 6.49524397220831772870e-01) (331, 3.78609304827274562033e-01) (332, 3.19095611596550865485e-01) (333, 4.35418849780972949670e-01) (334, 3.48206626906682470413e-01) (335, -8.56891284934940822282e-02) (336, 4.73011534764692320731e-01) (337, 3.73707404860438519023e-01) (338, 3.76042811532248666406e-01) (339, 3.51037620769239611107e-01) (340, 2.62526876282854426670e-01) (341, 1.42807199275220730872e-01) (342, 2.56538480791497214284e-01) (343, -1.63103052005690946080e-01) (344, -2.86084683281759323548e-02) (345, 1.51505719589882154041e-01) (346, 3.69329934583771224421e-01) (347, 4.42014478244663222561e-01) (348, 2.62092038169913998935e-01) (349, -6.67780522313011215552e-01) (350, 4.74402614437472169850e-01) (351, 3.82459106563590778283e-01) (352, -3.91189326388646174681e-01) (353, -6.80042972840574799775e-01) (354, -2.32326182734173203315e+00) (355, -2.14252502636896835497e+00) (356, -6.21863004069041158672e-01) (357, -6.33607688272060487478e-01) (358, -6.44637393253318480291e-01) (359, -6.31027182836062738858e-01) (360, -4.31267451227022383109e-02) (361, 2.29356678538653296906e-01) (362, 1.69745744662105096934e-01) (363, 1.77661253425663752392e-02) (364, 2.95436577677383849228e-01) (365, 3.56867143017620513934e-01) (366, 1.16290060703591796587e-01) (367, 2.89581150812477539080e-01) (368, 3.66219423384965769852e-01) (369, 4.73364389041588062845e-01) (370, 3.14973316858536467322e-01) (371, 3.70044690708300538784e-01) (372, 2.98560338028542593403e-01) (373, 4.87507296780225252153e-01) (374, 4.15462821140069604731e-01) (375, 3.26071430403655326824e-01) (376, 3.23054922445574710377e-01) (377, -1.10406730840764924495e-01) (378, 3.19644077095559531188e-01) (379, 4.34400115913656681421e-01) (380, 3.80069120633047374813e-01) (381, 7.88765190482820677254e-01) (382, -2.49370806902458541643e+00) (383, -6.40029091881826772692e-01) (384, 2.75117185117893403579e-01) (385, 3.53694442380172169305e-01) (386, 3.88777419133163271159e-01) (387, 4.94796608593126296949e-01) (388, 5.63015507223536659787e-01) (389, 4.75618513436655565574e-01) (390, 3.43848012852923268223e-01) (391, 4.46404273528365536094e-01) (392, 2.24069567276909215048e-01) (393, 3.65729626204544244761e-01) (394, 3.88836931509494276860e-01) (395, 4.11276992759670889654e-01) (396, 3.33846537518892039209e-01) (397, 4.01849426332828774111e-01) (398, 4.69854742292282356875e-01) (399, 4.29965792688534020893e-01) (400, 3.96479448768303155415e-01) (401, 2.99479256776730262679e-01) (402, 3.49664218538913496026e-01) (403, 4.91811042974526380078e-01) (404, 2.97690785323154960551e-01) (405, 4.75822108586399172836e-01) (406, 3.20455484038074889241e-01) (407, 3.70419623120048946419e-01) (408, 1.29504540443766802404e+00) (409, 9.87059478275303381345e-01) (410, -2.05964241273310089131e-01) (411, -4.07328539963388025491e-01) (412, 4.69841608149051959131e-01) (413, 3.50881647310017863450e-01) (414, 3.90713137331106963313e-01) (415, 3.79004818318655845033e-01) (416, 4.41947455783748277547e-01) (417, 4.92504732285928226165e-01) (418, 4.73908813272904849700e-01) (419, 4.93807640305508610545e-01) (420, 3.51406425515635945089e-01) (421, 3.29401504405662792774e-01) (422, 4.37069078285164613895e-01) (423, 3.95666923723187125006e-01) (424, 4.42199911375088350329e-01) (425, 3.47055353572737368406e-01) (426, 2.84657642248985653932e-01) (427, 4.60895034877220832747e-01) (428, 4.55200123993317329329e-01) (429, 4.76867887584129956924e-01) (430, 4.12188860980431281966e-01) (431, 4.12018712337459902528e-01) (432, 3.34502024610962234163e-01) (433, 4.84090614741343128191e-01) (434, 3.82183899913770941392e-01) (435, 3.30362437166534350652e-01) (436, 4.75044650636321197368e+00) (437, 9.12423382279103578618e-01) (438, 3.83356825982522353424e-01) (439, 4.71095925315018593249e-01) (440, 3.96262683481140853825e-01) (441, 3.80615380193650376661e-01) (442, 3.71743452491858306086e-01) (443, 3.63453614791297563436e-01) (444, 4.35259254251908644928e-01) (445, 4.57783010352187103020e-01) (446, 4.35747073565911635651e-01) (447, 3.77503683664165423650e-01) (448, 4.74610143884314161777e-01) (0, -2.83944777079720850343e-02) (1, -7.02723602724058815649e-02) (2, -1.15858059434576415869e-01) (3, 3.18909781667915184777e-02) (4, -4.36100915148566886659e-02) (5, 3.23837250224726855286e-02) (6, 1.50964385010756863698e-02) (7, -6.61430084821099800729e-02) (8, -1.89990217105264480590e-02) (9, -2.91105046846370299485e-02) (10, -1.03079661038883121926e-01) (11, -3.57465103332303760220e-02) (12, -1.27137711801106029208e-01) (13, 8.82213474577438205859e-03) (14, 1.42629234594261078417e-01) (15, 3.27024190526165881021e-02) (16, 6.17937041037361134421e-01) (17, 2.95027568869763268111e+00) (18, 9.07612447357534352088e-02) (19, -4.35359192799544825192e-03) (20, -1.01346533991509460404e-01) (21, 1.95444360609633230319e-02) (22, -1.06645962040917099967e-01) (23, -5.97724750566877138097e-03) (24, -1.13152553216771298294e-01) (25, -4.08887475422743812414e-02) (26, -6.40227492003877241000e-02) (27, 4.50745421729608561345e-02) (28, -9.46064718371530388730e-02) (29, 9.57545224944897875596e-03) (30, -2.16346240821478491556e-02) (31, 4.75162856717237722104e-02) (32, -3.77586884209803741452e-02) (33, 7.12963384434496111330e-02) (34, 4.05229651321980383072e-02) (35, -5.39527998267775726893e-02) (36, -3.84247367550716589779e-02) (37, -1.08514015832303398201e-01) (38, -1.01435079088413107606e-02) (39, -1.59202809149368601505e-01) (40, -2.74551931190858064524e-02) (41, -1.20835595929220496192e-01) (42, 1.46113312634807507306e-01) (43, 1.49898258056983785247e-01) (44, 7.47310977084852945396e-02) (45, -1.35704972132241210268e-03) (46, 1.15026543077955262229e-01) (47, -1.48384116221796258372e-01) (48, -1.03852939106637023881e-01) (49, -1.99549628761339081784e-02) (50, 1.93125472590579133625e-02) (51, -5.33166367558106021884e-03) (52, -3.66208461238330812426e-02) (53, 4.24554300336266940419e-02) (54, -8.54095193715666417544e-02) (55, -2.88460335689340527376e-02) (56, -4.03398089691832037462e-02) (57, -7.79853828579165058582e-03) (58, -4.92588361824891352025e-02) (59, 2.68543726860884096608e-02) (60, 3.53307510009118197480e-02) (61, -5.62679865219716385250e-02) (62, -1.22364491745005788542e-02) (63, 2.80841302912109257173e-02) (64, 7.35557291528099316258e-02) (65, -9.23699866007488684660e-02) (66, -1.36472295231034740359e-01) (67, -7.37654773603621111144e-02) (68, -5.94571067105475956072e-02) (69, 5.44887510660522766948e-02) (70, 1.47419230248191299171e-02) (71, -5.71336002683304408634e-02) (72, 6.27685751352629883737e-02) (73, -8.37483402754941319568e-02) (74, 6.18708217776740079796e-02) (75, 6.97747059656836227104e-02) (76, -2.33581261594606242812e-03) (77, 4.11247025393047692041e-04) (78, 3.37430503741615664404e-02) (79, 6.54869687597625926845e-02) (80, -4.11100349853382451837e-02) (81, -2.25805006454334877830e-02) (82, -1.46804989277488796146e-02) (83, 3.18387197055067516782e-02) (84, -5.98448981381982519911e-02) (85, 1.90174379608106756956e-02) (86, -2.35595639177520986551e-02) (87, -8.80895583459049419384e-02) (88, 4.54657127987487738596e-02) (89, 1.06808715054619932094e-01) (90, 3.13955306992042271208e-02) (91, -1.10184929773537582109e-01) (92, -1.26127040002002283048e-01) (93, -7.67682623001473690705e-02) (94, 3.56972110557180477564e-02) (95, -1.28327466769351555831e-01) (96, -2.06679897297688437707e-02) (97, -1.31481496589724522472e-01) (98, -2.65380192294118154306e-02) (99, -1.04017418970107758391e-01) (100, 6.95722970914838395595e-02) (101, -1.41167176135176847263e-01) (102, -5.56091677958354957401e-02) (103, 6.64690699950569313659e-02) (104, -5.91919335682517325226e-02) (105, -6.75138766372328918974e-02) (106, 2.42465352213256692127e-02) (107, 7.21881107613696476610e-02) (108, -1.21822999101339479733e-01) (109, -3.93504055810942124372e-02) (110, 3.79489314584161296917e-02) (111, -6.14461499424551055304e-02) (112, -1.07022327615360776654e-01) (113, -4.92333955668351475055e-02) (114, -5.04561584373516142099e-02) (115, 3.58680315657137344099e-02) (116, -4.09101391756865051530e-03) (117, 2.99570714963280360088e-02) (118, -4.83306802096960669290e-02) (119, -1.43828440515680666678e-01) (120, 1.17607216771863521548e-03) (121, -8.38335664979686784326e-02) (122, -8.32643931971672190961e-02) (123, 6.52603919097301810037e-02) (124, -4.63365850417523598287e-03) (125, -1.18395387318601427729e-01) (126, -1.10491381269155627964e-01) (127, -4.67102666665897559017e-02) (128, -7.81339667270527504783e-02) (129, 7.58660451902128021157e-03) (130, -1.10803623600008796513e-02) (131, -8.51277744242138895148e-02) (132, 2.36220967810027958345e-02) (133, 1.01655000565545688973e-01) (134, -9.87489660565168819728e-02) (135, -1.10745012332690462298e-01) (136, -1.00922532425573960313e-01) (137, 4.99252596396435460724e-02) (138, -1.21634414340189248027e-01) (139, -8.55361702075751323404e-02) (140, -2.87605096731785164765e-02) (141, -1.16663438512424999516e-01) (142, 4.68741917123612419904e-02) (143, -4.05093832365705855403e-02) (144, -6.07840760599097709727e-02) (145, -1.55128171146943522052e-01) (146, -1.49619105115169848119e-01) (147, 1.92560749973890062148e-02) (148, 7.71067523100696806254e-03) (149, -4.04809686708817659251e-02) (150, 3.95786350914810874935e-02) (151, -1.16961711695815744755e-02) (152, 2.31004038918710789818e-02) (153, -1.44061102094146464836e-01) (154, -4.64054328899750831439e-02) (155, -3.29358039002786012750e-02) (156, -1.03925571438191741147e-01) (157, -3.07390151124367835833e-02) (158, -1.50478318125148391449e-01) (159, -6.17792902292208026549e-02) (160, -8.98781822126858559452e-02) (161, -2.20664836965951682846e-02) (162, 1.19462829723456960551e-02) (163, -1.41585545143772056909e-01) (164, -3.61535259190441105037e-02) (165, 3.88332366148904026271e-02) (166, -1.09410594745105241299e-01) (167, 1.16305620367254496095e-02) (168, 1.23942964503657993003e-01) (169, -1.06262753677493229643e-01) (170, -1.11344366057576207862e-01) (171, -7.23539734823851338197e-02) (172, -1.04070880222410178106e-01) (173, 5.56512534111484966776e-03) (174, -4.36954662962962554068e-03) (175, -2.15621234986727271232e-02) (176, -1.07271942663560125586e-02) (177, 1.04353901576628507741e-02) (178, -3.80604508389826637349e-02) (179, -3.22411720046022406971e-02) (180, -7.32170867652938150982e-02) (181, -6.15027386442084517126e-02) (182, -8.45102155434986623828e-02) (183, -1.62330439826594598307e-02) (184, 1.97709517048778220596e-03) (185, -6.13457308798261991001e-02) (186, -2.93150172704504219379e-01) (187, -2.54829035573535360448e-02) (188, -1.15407320859921572187e-01) (189, -2.90013031928028075512e-01) (190, -9.89428419396276986886e-02) (191, 7.62728431654001969020e-03) (192, -1.61045656068636074826e-03) (193, 1.06801766266987493981e-01) (194, 6.71558653358794305221e-02) (195, -3.62122163603950247834e-02) (196, 3.10062666742918421892e-02) (197, 6.40554760041927850889e-02) (198, -5.31222668187324859046e-02) (199, 6.27240458356047303479e-02) (200, -6.69485296902251614259e-02) (201, -1.25786259765454655479e-01) (202, 3.91892058049449140689e-02) (203, -9.64303640889963564753e-02) (204, 1.56737864679349736367e-03) (205, 2.48264038327349577384e-02) (206, 1.01812258738753186327e-01) (207, 1.03743182181555537724e-01) (208, 3.18074480820072641452e-02) (209, -1.88644114124640709107e-02) (210, -8.28215882965897265411e-02) (211, -7.86245524895193420578e-02) (212, -1.01623929394847711816e-01) (213, -7.79204076055945021873e-02) (214, -8.58059058509130084813e-03) (215, 1.00291011449455038512e-02) (216, -8.41803618804281839072e-02) (217, -1.77939751282994718107e-02) (218, -3.19939398304288150077e-02) (219, 1.37159730635362155787e-02) (220, 8.00942288224484877368e-03) (221, 4.21443147449959282236e-02) (222, -1.04002182144187146906e-02) (223, 1.22852208066883961113e-02) (224, -1.99284134856894182275e-02) (225, -1.28829750274820659106e-01) (226, -4.17154620942377443726e-02) (227, 4.33345098774727405244e-02) (228, 1.46546435930587776175e-01) (229, 3.69209411395457071103e-02) (230, 5.08649115971030796324e-01) (231, 9.72176512938974640710e-02) (232, 2.11745574727633084633e-01) (233, 1.20961560397501277642e-01) (234, -1.64943842001574103584e+00) (235, -1.00108468866306594691e+01) (236, -3.55783747949857032111e+00) (237, -5.75524234267860146375e-01) (238, 6.64519075305146533772e-01) (239, 4.90748490525829750286e-01) (240, 1.38584677581274773317e+00) (241, -1.89669980503714641351e-01) (242, 5.68367873773347881405e-02) (243, 1.78685476587361224965e-01) (244, 3.29855658902413695355e-01) (245, 4.41694871118076870520e-01) (246, 4.08894550757585018008e-01) (247, 3.52882237642083651519e-01) (248, 1.40543559712143162344e+00) (249, 8.25352224159460745589e-01) (250, 6.70046301514791275977e-01) (251, 2.17648122501081925373e-01) (252, 4.03558795135315409586e-02) (253, -5.39096789898440495459e-02) (254, 7.18225664157314536151e-02) (255, -3.52085720021431125559e-02) (256, 1.19203865964350147477e-01) (257, 2.07298360850913798714e-01) (258, 3.92642242976372901619e-01) (259, -2.39467689825450358310e-01) (260, -3.77384832505776923739e-01) (261, 1.78752557223112507057e-01) (262, -3.66257484549876100033e+00) (263, -1.56795417218302635121e+00) (264, -1.57193040963264890619e-01) (265, -2.96405143653015423766e+00) (266, -2.42761946566747877085e-01) (267, 7.38187389595203136139e-01) (268, 1.02526404622589772941e+00) (269, -5.15620856752032263870e+00) (270, -1.07714335624712784778e+01) (271, -2.12318219918280171044e+00) (272, 3.27803586944755442900e+00) (273, -1.70222341475009752987e-01) (274, -2.36602351666537619179e-01) (275, 9.31191685890684489602e-02) (276, 1.54396186023241788199e-01) (277, 2.73922233585387253640e-01) (278, 1.29413936514661015442e-01) (279, 3.42747541251247483940e-02) (280, 1.08746531938165677533e-01) (281, 7.84813497162939466278e-02) (282, -7.82792470562415493296e-02) (283, -1.06017199827300057785e-02) (284, 1.74594605070491654120e-01) (285, 1.86011255326232229079e-02) (286, 9.22828017560827773558e-02) (287, -1.75147246568280012813e-01) (288, -3.96858490858869172868e+00) (289, -9.13786191561057226096e-01) (290, -7.91134406446927340717e-01) (291, -3.53771699898777214344e-01) (292, -6.40909173098625606357e-01) (293, -7.98661573977033412142e-01) (294, -2.26036959217845973003e-01) (295, -3.30000919094736722137e-01) (296, -6.37251785076934806895e-01) (297, -7.11498765883495920548e+00) (298, -8.69256780846760790382e+00) (299, -3.54664753159690260276e-01) (300, 3.62485416170339969089e-01) (301, -5.17608322606927240273e-01) (302, -2.92764440018753013817e-01) (303, 6.04740742481062621555e-03) (304, -1.76112291323475625426e-02) (305, 1.76300511424137301697e-01) (306, 5.00750796241616891180e-01) (307, -1.40980767396051587248e-01) (308, 1.44654056948177206499e-01) (309, 2.72042300490717037231e-01) (310, 5.50634454557017205545e-01) (311, 6.49079498083041550593e-01) (312, 2.64609305465066224627e-01) (313, 6.31194241889514562338e-01) (314, 5.76702520339426372153e-01) (315, 1.83707576174515392620e-02) (316, -5.20569331566302431757e-03) (317, 3.05143979903816295329e-02) (318, -2.93210909959334964370e-03) (319, 8.85632935623443667827e-02) (320, -1.24728338673535752573e-02) (321, 2.89784277323568484341e-01) (322, 3.01978065736773423899e-02) (323, 9.18858144907430118842e-02) (324, -1.86051501163710053532e-01) (325, -1.21370128639163477047e+00) (326, -1.52137321390047791647e-01) (327, -1.39034720653963023151e-01) (328, -2.98588630356239170816e-01) (329, -1.31383697855240524910e-02) (330, 1.34906787437826941600e-01) (331, 3.17583842525623716302e-01) (332, 6.74572298820329957492e-02) (333, -4.59277273119310797123e-02) (334, 7.24948899794522622075e-02) (335, 6.69534871773000972439e-01) (336, -1.32839102919215690246e-01) (337, -1.88339760016801652243e-02) (338, 1.43577600269234023633e-01) (339, 1.45359718425500411554e-01) (340, 1.11082335903385925890e-01) (341, 1.95604876849236636316e-01) (342, 2.90158821546876277697e-01) (343, 6.63608046204732571205e-01) (344, 6.51780386458908900238e-01) (345, 2.87932727413159783580e-01) (346, -8.39660049550434717247e-02) (347, -1.28678926375917851432e-01) (348, 2.05115682181342157131e-01) (349, 1.35633237785480131876e+00) (350, 2.29665810999935306180e-02) (351, 9.88313575729422438831e-02) (352, 1.07813423051814916143e+00) (353, 1.45868351560759723640e+00) (354, 3.78142416116692547945e+00) (355, 3.62949665678298538651e+00) (356, 1.34037324653773826100e+00) (357, 1.36157389239573034523e+00) (358, 1.40587075014841045295e+00) (359, 1.45820874631737140703e+00) (360, 6.15521193805739219584e-01) (361, 1.80944531647727363532e-01) (362, 4.18907055003500228274e-01) (363, 6.78059058376908829757e-01) (364, 4.67452382825394099908e-02) (365, 9.84830859537555863836e-02) (366, 8.34325998007365149389e-02) (367, 4.92383989925817069921e-02) (368, 9.16660172054601235514e-02) (369, -1.25122346808229562010e-01) (370, 1.33688620293624365470e-02) (371, -7.03789855602435787674e-02) (372, 4.00645632951333249827e-02) (373, -2.84460204870320455817e-02) (374, 7.88749366288373290890e-03) (375, -1.41282274945391833620e-01) (376, -2.82989462780962389155e-02) (377, 5.94864673782120823020e-01) (378, 1.69112492726507745999e-01) (379, 1.93097272581420453808e-01) (380, 3.45053095784734809026e-01) (381, -1.63261747338004220564e-01) (382, 3.84501049875332157058e+00) (383, 1.52381980021923535418e+00) (384, 4.52317803502129966997e-01) (385, 3.01960418206506486793e-01) (386, 3.82661484802987839071e-01) (387, -7.95592780551620040730e-03) (388, -1.77972750498140735997e-01) (389, -1.19614872107220160391e-01) (390, -6.22996714492743235148e-03) (391, -1.65022174533595855639e-02) (392, 2.75748701840289218989e-02) (393, 1.25499034711239448175e-02) (394, -3.75908823720684168168e-02) (395, 1.58657905192467613142e-02) (396, -6.04606826039536179862e-02) (397, -1.64562415528300108603e-02) (398, -4.42084383780346062975e-02) (399, -3.99076699092731773666e-02) (400, -1.44086389615879981174e-02) (401, 5.64870086465162832279e-02) (402, -6.58915948954804098214e-02) (403, 2.25761999639952429253e-02) (404, -8.30723226342995751947e-02) (405, -6.43216619859286464767e-02) (406, 8.25742584229489928749e-02) (407, 8.54039456286220521886e-02) (408, -8.31674236498102126269e-01) (409, -3.93380676451271837912e-01) (410, 1.06104185215865531866e+00) (411, 1.16917765796877470841e+00) (412, 7.23146709792319986043e-02) (413, 7.52013646776794331128e-02) (414, -4.05963800818008591076e-02) (415, -1.38142812946562248966e-01) (416, -9.50434927634245391159e-02) (417, -4.67736671152949520791e-02) (418, 3.27755150910972806177e-02) (419, 3.83467662227816516451e-02) (420, -4.55062518653344474928e-02) (421, -1.19696993334089382688e-01) (422, -1.09950507534994260106e-01) (423, -3.18607422398596226709e-03) (424, -1.92215468807587878952e-02) (425, -2.29651865956343841091e-02) (426, 3.05400526046725349569e-03) (427, -9.84836982423636375650e-02) (428, -9.10042056674334187694e-02) (429, -1.18266859822926229118e-01) (430, -1.27303616935583781972e-02) (431, -2.17588458010038558743e-02) (432, 2.36252834008851796133e-02) (433, -1.52541703068161310641e-01) (434, -2.42348972201498688572e-02) (435, -6.41894967392748205803e-02) (436, -6.02078450095329564817e+00) (437, -3.43787321631973452618e-01) (438, 4.27936998721717906657e-02) (439, -5.72886018156924040068e-02) (440, 4.99600854812703512597e-02) (441, -7.17056524354916929864e-02) (442, 3.30044560163932909624e-02) (443, -1.04556651114607504494e-01) (444, -7.65438216212631639124e-02) (445, -5.84474989104745643043e-02) (446, -6.14046553555370674959e-02) (447, -3.24255668655698062186e-02) (448, -3.31009295530839339761e-02) (0, 4.66542866942791623064e-01) (1, 3.07052554801699684184e-01) (2, 3.03801265472101733600e-01) (3, 4.66590131671787700096e-01) (4, 3.08147788308368197896e-01) (5, 4.68042555496216705624e-01) (6, 4.23314200335635271166e-01) (7, 4.64436150471486008939e-01) (8, 4.01458417622528929147e-01) (9, 4.29977942188244310895e-01) (10, 3.07138615969568207209e-01) (11, 4.21225772793078268030e-01) (12, 3.63845715354449261714e-01) (13, 4.40806895210361759929e-01) (14, 2.88801796854905812317e-01) (15, 2.33964960016061762627e-01) (16, -1.52707464580072144189e-01) (17, -4.08739424645694970906e+00) (18, 3.56763103782164026079e-01) (19, 3.00358896336018366124e-01) (20, 4.03247920244805491130e-01) (21, 4.37689972174949648576e-01) (22, 4.55061397174932547038e-01) (23, 4.50205787316093120065e-01) (24, 4.33746491734435690724e-01) (25, 4.91298754045106866872e-01) (26, 4.74380602323153044431e-01) (27, 3.15351351962647685756e-01) (28, 3.19710648849873213528e-01) (29, 3.47543132572681268133e-01) (30, 4.53114804636184864695e-01) (31, 2.84758866638017915651e-01) (32, 3.48186697262217514925e-01) (33, 4.66072848403841055731e-01) (34, 4.93357933627273814725e-01) (35, 3.86937150618392622370e-01) (36, 4.26511754909393581148e-01) (37, 4.22153126263532407769e-01) (38, 3.78042018486331676819e-01) (39, 3.77537606163030503570e-01) (40, 3.86739594622177718097e-01) (41, 3.78028380230127802886e-01) (42, 4.53011469219054663249e-01) (43, 4.56389071004041024793e-01) (44, 3.25559979464739523980e-01) (45, 3.66027824851449579135e-01) (46, 2.60584190087333134045e-01) (47, 4.18746688201180550237e-01) (48, 3.38274692565076029460e-01) (49, 4.58993314134379937208e-01) (50, 4.10000218543216943257e-01) (51, 4.16803507599041223042e-01) (52, 3.97183710486916918825e-01) (53, 3.84948714607743769367e-01) (54, 3.87697233789948969562e-01) (55, 3.41134260489064977673e-01) (56, 3.61845423394369647419e-01) (57, 3.64848700176422291452e-01) (58, 3.55389886201130544841e-01) (59, 3.93015308957120113043e-01) (60, 3.95588281947066300326e-01) (61, 3.06512147555042524516e-01) (62, 4.20425651932864352656e-01) (63, 4.67139073063975951428e-01) (64, 4.68255727121833442705e-01) (65, 4.16099387129398368135e-01) (66, 3.98377926237276969168e-01) (67, 4.37685055945178536074e-01) (68, 3.48515102926751640933e-01) (69, 4.50244542398769043157e-01) (70, 4.76651253793087759103e-01) (71, 4.23704228609056265942e-01) (72, 3.33099061001009721927e-01) (73, 4.38963611919350404911e-01) (74, 3.86346430674126495308e-01) (75, 3.76341993872967406354e-01) (76, 3.37296224052299975504e-01) (77, 4.40289025399086431101e-01) (78, 2.92350471828464131274e-01) (79, 3.54773022582179686779e-01) (80, 3.84115483769104260059e-01) (81, 4.24910564132854717823e-01) (82, 2.93338948747474348444e-01) (83, 3.13380950518447665143e-01) (84, 3.29414242993303185703e-01) (85, 4.02071888162490398422e-01) (86, 3.36822764534138785475e-01) (87, 3.79146173150691767617e-01) (88, 4.51935419272339877761e-01) (89, 4.14170910908171041598e-01) (90, 2.94934671168869455560e-01) (91, 3.81893745954891283834e-01) (92, 4.41349244844935928445e-01) (93, 4.36253405344508682351e-01) (94, 3.74403805486823615389e-01) (95, 4.32352946329452147989e-01) (96, 3.59442784420042960036e-01) (97, 4.67451272085922298061e-01) (98, 3.72863221234702668649e-01) (99, 4.09856814212226472360e-01) (100, 4.24713611606476082461e-01) (101, 3.60950818578979037987e-01) (102, 3.22776596996900810854e-01) (103, 4.75227155600074169239e-01) (104, 2.97060922135955474133e-01) (105, 4.20799809231883648053e-01) (106, 3.65101742282039287701e-01) (107, 3.37307008448049783222e-01) (108, 3.67630586031791939394e-01) (109, 3.96616940584061050679e-01) (110, 4.34129490488557368000e-01) (111, 4.92711036437539440236e-01) (112, 3.18310812496658435133e-01) (113, 4.43426596898304603567e-01) (114, 2.83166060912605377364e-01) (115, 3.25302168113486944723e-01) (116, 3.30421119463593926380e-01) (117, 3.74641274661208389940e-01) (118, 4.85357728611175709421e-01) (119, 3.08939305061029956256e-01) (120, 3.04203430820362441533e-01) (121, 2.97387514335631930606e-01) (122, 3.86319363118702130411e-01) (123, 4.24853976752334772105e-01) (124, 4.36411751813888026952e-01) (125, 4.83130549266277908860e-01) (126, 3.64094153050300850527e-01) (127, 2.84095456519958877717e-01) (128, 4.41837374278232830616e-01) (129, 4.31794272364669995401e-01) (130, 3.93093680659172328706e-01) (131, 3.91995578474549688508e-01) (132, 2.96297043909675261730e-01) (133, 4.18763080832363465689e-01) (134, 4.04002153051840284803e-01) (135, 3.15272743223384499522e-01) (136, 3.93977731383926166320e-01) (137, 4.91653858083873018803e-01) (138, 3.93019743938909982273e-01) (139, 4.86611934900393228176e-01) (140, 3.69540320864346738539e-01) (141, 3.01129460715767016676e-01) (142, 4.30998797490141138944e-01) (143, 4.27808036029982130533e-01) (144, 4.82645519071017992108e-01) (145, 4.95660954135397791021e-01) (146, 3.22865375270094734361e-01) (147, 3.32901818883904354607e-01) (148, 3.74325884462364866234e-01) (149, 3.09666676207108249042e-01) (150, 3.40860899479613232987e-01) (151, 3.64138830394968915360e-01) (152, 3.14973571492842607800e-01) (153, 4.68869527751454073794e-01) (154, 3.30540245152516010130e-01) (155, 4.58506224430603626097e-01) (156, 4.52048583072099441349e-01) (157, 4.15528041995567920530e-01) (158, 4.65463737703899649301e-01) (159, 4.22259959138969687142e-01) (160, 3.87156694174192739233e-01) (161, 3.87426291796437449744e-01) (162, 3.08287364999401569676e-01) (163, 3.84295772064358887032e-01) (164, 3.28371741402619266026e-01) (165, 4.33817384275050510478e-01) (166, 4.23135511891729987344e-01) (167, 4.26721569183830085059e-01) (168, 3.24979688607284988855e-01) (169, 3.06637063603382997723e-01) (170, 3.87090964477931287480e-01) (171, 3.02840257317218919386e-01) (172, 3.53380325705398234959e-01) (173, 3.89385532529578137773e-01) (174, 4.70895021097952004574e-01) (175, 3.35036791062069239100e-01) (176, 4.00222321732563612873e-01) (177, 4.86287003143353102619e-01) (178, 3.61921101278418533287e-01) (179, 4.68863363512518227516e-01) (180, 5.01946974222312491953e-01) (181, 4.23466566988945969374e-01) (182, 3.33524468622791780970e-01) (183, 2.98518027115541761951e-01) (184, 3.88781191852558993816e-01) (185, 5.06983203517223479651e-01) (186, 7.61664044447831867224e-01) (187, 3.94745096054899768934e-01) (188, 5.96815332357992667234e-01) (189, 7.28044950144663194358e-01) (190, 4.62194253784293185294e-01) (191, 3.70666199315452193908e-01) (192, 3.04543405677973388901e-01) (193, 4.81253879759159841623e-01) (194, 4.48511106360761413470e-01) (195, 2.96596780941057791559e-01) (196, 4.11603105564373905612e-01) (197, 3.48321414856393618553e-01) (198, 3.83001568021293647970e-01) (199, 3.23848372951366592076e-01) (200, 3.91590018860196786843e-01) (201, 3.92163134689553549705e-01) (202, 3.75052600139169245441e-01) (203, 4.59892161398110288495e-01) (204, 2.98664626929883603168e-01) (205, 3.18848710517523115104e-01) (206, 4.82668592686148589799e-01) (207, 3.84392033450781933634e-01) (208, 3.14011380817037777380e-01) (209, 3.39672531424166812553e-01) (210, 3.68986378735374764837e-01) (211, 3.09824161508569062562e-01) (212, 4.78135650851093330083e-01) (213, 4.29372610463608028741e-01) (214, 3.19963674129019215453e-01) (215, 3.67578783606480941071e-01) (216, 3.07637600101791308660e-01) (217, 4.95210697748027839360e-01) (218, 4.14344554640613482732e-01) (219, 3.05635360874496497807e-01) (220, 4.15522793928948086517e-01) (221, 3.67443969055281427494e-01) (222, 3.45510596247464496500e-01) (223, 3.53384139671613195510e-01) (224, 3.62186399222063581949e-01) (225, 3.23817566902088682657e-01) (226, 4.36161815492589755028e-01) (227, 2.13531307800766290139e-01) (228, 3.28977109670296141708e-01) (229, 3.47226872549861842465e-01) (230, -1.80215382876754343089e-01) (231, 1.45021798149502806341e-01) (232, 1.92504047529532679173e-01) (233, 2.39389030616221409886e-01) (234, 2.71032145768515642104e+00) (235, 1.56059363127466426135e+01) (236, 5.81861979274768348347e+00) (237, 1.23416954534132905508e+00) (238, 9.48593032040781630743e-02) (239, -1.09404286107413803442e-01) (240, -6.79433992512984974432e-01) (241, 1.15091988455614901987e+00) (242, 1.83586244885538629745e+00) (243, 8.11707147629591507787e-01) (244, 3.19027813684978789333e-01) (245, 3.04322586723920485152e-01) (246, 2.68926975043827454215e-01) (247, 3.27976208663326607162e-01) (248, -7.56419509770644205027e-01) (249, -1.15486399826081012621e-01) (250, -2.40723197912402799015e-02) (251, 4.23481573524290444421e-01) (252, 3.09108003898616812144e-01) (253, 2.55858731514067072599e-01) (254, 2.41187373758840223337e-01) (255, 3.85904908104892752085e-01) (256, 1.85320314942080455189e-01) (257, 1.78796047540660363317e-01) (258, 3.28723860664850653368e-01) (259, 6.79342493282537263077e-01) (260, 1.03387564235503326415e+00) (261, 5.30998850547917400355e-01) (262, 5.63616414614791860771e+00) (263, 2.55644022155171057875e+00) (264, 1.24812885468391820964e+00) (265, 4.43623433386901577791e+00) (266, 8.24350852829272562339e-01) (267, 4.95345881579508789949e-02) (268, 1.25011610333912882159e-02) (269, 7.78410002881966001098e+00) (270, 1.70184458696489002705e+01) (271, 3.99807058151379557387e+00) (272, -2.03960491818603362191e+00) (273, 8.74523027712697409441e-01) (274, 8.26603033878147597235e-01) (275, 5.54178543094129172353e-01) (276, 3.06625776755225287751e-01) (277, 4.40116983893975244335e-01) (278, 2.90626365066173175666e-01) (279, 3.59261533437621238818e-01) (280, 2.82855224084063494594e-01) (281, 4.51735920627861775589e-01) (282, 3.40610181167672831926e-01) (283, 3.98571212311507105941e-01) (284, 2.94733217942668712652e-01) (285, 4.54815967790366648682e-01) (286, 3.81815111345605251447e-01) (287, 8.24778851689075720444e-01) (288, 5.77648468659095382094e+00) (289, 1.40445429973985924654e+00) (290, 1.37462296127828942360e+00) (291, 8.82800470482075660961e-01) (292, 1.37577148219023004394e+00) (293, 1.43315319518491124384e+00) (294, 8.85418686369878527032e-01) (295, 8.90373087686990638545e-01) (296, 1.71910711974825014536e+00) (297, 1.03296460352901462443e+01) (298, 1.31289896602935129977e+01) (299, 1.27061329657697164031e+00) (300, 4.91774788520636163547e-01) (301, 1.48655493945665750921e+00) (302, 9.24957085667048373168e-01) (303, 4.62595105538633477593e-01) (304, 4.54390373459805263501e-01) (305, 4.60160179599463814437e-01) (306, 2.56028616325675917320e-01) (307, 7.59069721739038860697e-01) (308, 3.75170904263333493400e-01) (309, 1.75356750235614144984e-01) (310, -1.89511090346353550107e-01) (311, -5.92221714176378311034e-02) (312, 1.52926959368634013403e-01) (313, -1.68159241650849972105e-01) (314, -1.64568500058214495230e-01) (315, 3.63482342251898626895e-01) (316, 3.82845443961330300642e-01) (317, 4.92641748463105655365e-01) (318, 4.68314659800199428741e-01) (319, 4.42220964200748856143e-01) (320, 4.82824967224959544776e-01) (321, 4.18632323769997483076e-01) (322, 3.55210322805225575671e-01) (323, 6.41051322918601118594e-01) (324, 7.33840545848781555804e-01) (325, 2.18333123167762765959e+00) (326, 1.04224728392427312684e+00) (327, 6.35887788057571401446e-01) (328, 9.16589422493366945410e-01) (329, 6.87056287064478743432e-01) (330, 5.01741818156462571210e-01) (331, 4.32131195020498737325e-01) (332, 3.73581245565857811286e-01) (333, 3.83222399249490364159e-01) (334, 3.84553300872136627486e-01) (335, -1.38855119352764205809e-01) (336, 3.61622508718893065360e-01) (337, 2.78620033093871288798e-01) (338, 2.27206988592375591640e-01) (339, 2.56643737868763155419e-01) (340, 2.44670636010331871146e-01) (341, 1.40727153634752105704e-01) (342, 1.29650842669653598715e-01) (343, -1.51470393464488456425e-01) (344, 1.11981360572000043091e-02) (345, 2.65213612186603941989e-01) (346, 3.98995374904739852351e-01) (347, 3.81897986032844527493e-01) (348, 2.99703567400985360081e-01) (349, -6.39245417024982054421e-01) (350, 3.12357843421828373920e-01) (351, 2.80557329474948657921e-01) (352, -3.28214806361008748503e-01) (353, -7.54807433165816110687e-01) (354, -2.15791552524965579707e+00) (355, -2.25293637977825822460e+00) (356, -7.07630943755816366192e-01) (357, -7.42675206536116183642e-01) (358, -8.03351441817752975894e-01) (359, -7.76626011628635204431e-01) (360, 6.06525133249010816455e-03) (361, 1.22860068791243337571e-01) (362, 2.77668805317699218804e-01) (363, -7.85562434878763066193e-02) (364, 3.36743512928142973983e-01) (365, 3.01136882109016845721e-01) (366, 1.66801689092950483628e-01) (367, 2.19499067468017589055e-01) (368, 4.15401786239446513260e-01) (369, 3.75040194491073897165e-01) (370, 3.50497342417961821326e-01) (371, 4.01370835642001100307e-01) (372, 3.98156093367211527667e-01) (373, 3.96143680492516858660e-01) (374, 4.58421632065553308344e-01) (375, 4.65473797578280723553e-01) (376, 3.45399195029297778614e-01) (377, -3.77824944954737590441e-02) (378, 1.98929941627553286132e-01) (379, 2.94355918473509503563e-01) (380, 4.81228462266367229550e-01) (381, 7.06006286979402708504e-01) (382, -2.53565403684785239946e+00) (383, -6.75895233201101452991e-01) (384, 3.17593831720047181655e-01) (385, 2.77094769943457774897e-01) (386, 4.42499934835410890788e-01) (387, 4.51505311783214569044e-01) (388, 5.77348330678870369503e-01) (389, 5.70626991005281469782e-01) (390, 3.54957879054800862217e-01) (391, 3.09929090458659572960e-01) (392, 2.12581420196964770986e-01) (393, 2.84762550081783472056e-01) (394, 3.56039371413707228520e-01) (395, 4.41095773479904806891e-01) (396, 3.97149203467759837061e-01) (397, 4.19563502076980843203e-01) (398, 4.29591447118637337343e-01) (399, 3.42450811061069726460e-01) (400, 3.15869322511360406391e-01) (401, 2.94739979711930000228e-01) (402, 4.93475388550672300347e-01) (403, 3.10796676526600812451e-01) (404, 4.01587880049717460551e-01) (405, 4.62592082818119143539e-01) (406, 4.78843487745007068135e-01) (407, 4.96661001606205243508e-01) (408, 1.35443961501467891040e+00) (409, 8.24733336083416479489e-01) (410, -2.19767052776720261953e-01) (411, -4.46774983282709259313e-01) (412, 4.24756565433979549340e-01) (413, 4.95132859787701995469e-01) (414, 3.15400552692511382258e-01) (415, 3.76396414755156394349e-01) (416, 3.09599007745647081258e-01) (417, 4.70914663349580264740e-01) (418, 4.28009109174203261627e-01) (419, 3.75792015722741012951e-01) (420, 4.24824819246753193624e-01) (421, 2.94611673959419506641e-01) (422, 3.82578251261181612186e-01) (423, 4.57597170374359762945e-01) (424, 3.26443019707245485339e-01) (425, 4.59766980609070452513e-01) (426, 3.76406669620392098086e-01) (427, 4.08440801707665168685e-01) (428, 3.85625820068279945296e-01) (429, 3.28353613076369010848e-01) (430, 4.72219634262482368392e-01) (431, 4.61834285135712008241e-01) (432, 3.81248468568052611971e-01) (433, 4.87932566230791675554e-01) (434, 4.50985116694910315172e-01) (435, 4.81005987026058234868e-01) (436, 4.74105841718321929790e+00) (437, 9.39612584885781587651e-01) (438, 4.60241751347970351471e-01) (439, 3.21102058632965869922e-01) (440, 4.61125746876164255283e-01) (441, 4.43697486605107382918e-01) (442, 3.82303130569556059992e-01) (443, 3.83231642921828874471e-01) (444, 4.42592562710236836487e-01) (445, 3.93030103791289275872e-01) (446, 4.52916683231782302155e-01) (447, 4.52488547064624602179e-01) (448, 3.88267160936487776279e-01) (0, 5.54705542597765721702e-01) (1, 4.98526985833274149940e-01) (2, 4.83047473537864147097e-01) (3, 5.80201175476866337632e-01) (4, 6.80540542145999127754e-01) (5, 6.93219504646085948885e-01) (6, 6.47649747123540953098e-01) (7, 5.55067594389512919406e-01) (8, 5.27776212980821779475e-01) (9, 5.50988552141820187025e-01) (10, 4.49605104735440963548e-01) (11, 5.61293960481475950886e-01) (12, 5.16077421671986114049e-01) (13, 6.16083568363470890361e-01) (14, 8.26909304986840676399e-01) (15, 7.10137279697643508669e-01) (16, 1.38415315868647570419e+00) (17, 7.46468335956880491011e+00) (18, 5.35187019695380850060e-01) (19, 4.93088688773847760860e-01) (20, 5.73681342155418105833e-01) (21, 5.06875058372369124982e-01) (22, 4.58809556917503469364e-01) (23, 5.29640742741785852665e-01) (24, 5.77896090050062150034e-01) (25, 5.41194609783961166904e-01) (26, 4.78928564406557288891e-01) (27, 4.71370275898665147540e-01) (28, 5.10456068203682611362e-01) (29, 6.29220323877412446301e-01) (30, 5.16609435055401688963e-01) (31, 6.23848749906180000124e-01) (32, 5.52798374798868508151e-01) (33, 6.02425385138309343880e-01) (34, 5.53335497036999690579e-01) (35, 6.25139740293979784269e-01) (36, 5.37609103847243474661e-01) (37, 6.20668290264039579363e-01) (38, 4.85860576070596961173e-01) (39, 